598 128
111 -0.09780695 0.016412815 -0.3242037 -0.06355029 0.5027101 -0.060794856 -0.6102994 -0.39105546 0.63314927 -0.109661356 0.061463233 -0.45474753 -0.34127176 0.2757115 -0.29995343 -0.51511914 0.42526713 -0.98545396 0.8592453 0.37689644 -0.77553624 -0.14852862 -0.27874914 -0.1675137 0.09966116 -0.58219755 -0.03164533 0.28858632 -0.24037592 -0.13358814 -0.123291664 -0.25528416 0.93930733 -0.7926317 0.45033136 0.6880551 0.593123 -0.0072703287 -0.51424867 -0.502576 -0.5159574 -0.8188655 0.39979297 0.60566777 -0.41028264 -0.11249797 -0.062209334 0.14385712 0.331017 0.3093372 -0.74975455 0.5641504 -0.28800035 1.2053175 0.6694886 0.77240175 -1.219389 0.04699271 -0.3094784 0.47001454 -0.51829696 -0.08797383 -0.022364395 -0.020053808 0.6087082 0.1986103 0.112269364 -0.3260602 1.2427567 0.5215127 0.12066128 -0.25446326 -0.6267349 0.35839948 -0.27539167 -0.69584215 -0.12246848 0.07130687 -0.64873165 -0.10593081 0.39348722 -0.6981018 -0.5381649 0.6445162 -0.48234636 -0.5701102 0.054036092 -0.15598533 -0.1279544 -0.13983582 0.2847391 0.7427586 -0.28324237 -1.2574856 0.04706377 -0.036075957 0.21088368 0.46351746 -0.10024463 -0.23479196 0.13617085 -0.4919533 -0.5111356 0.20052306 0.47079286 0.14938991 -0.14291213 -0.5803208 0.6582857 -0.007522727 0.03735659 -0.36417004 0.23022975 -0.65711516 0.28712788 0.2892124 -0.36284524 -0.77186245 0.85636 -0.3178842 -0.044030577 -0.041657925 -0.44865292 -0.8614804 -0.1639091 0.9908556 0.91941303 0.47270957
139 0.12305714 0.21998368 -0.9353977 -0.19985136 0.22009829 -0.8801677 0.22005503 -0.59882474 -0.4800652 -1.1031188 0.19691503 0.8446372 -0.5794124 -0.60536045 -0.29531333 0.0017856304 0.51410246 -0.28856367 0.56975895 0.8186634 -0.336608 0.4731082 -0.5620094 0.012775149 0.0965846 0.56709546 0.070099644 0.16499 0.00014994458 0.722047 -0.71514326 -0.12127281 0.40704724 -0.8709506 -0.21840507 -0.65423423 0.1292922 0.3756397 -0.94196594 -0.41771752 -0.71154964 -0.41894245 -0.10005164 -0.08972873 -0.12074483 -0.13908641 -0.108990066 0.58495015 0.23486392 0.677755 -1.1420622 0.42231438 0.04947185 0.22717305 -0.038227122 -0.1783104 -0.47877887 -0.49454743 0.6033655 -0.044329334 0.23121709 -0.20118156 0.052148376 0.25096476 0.40429378 0.46019247 0.4737098 -0.1758892 -0.07436141 -0.61599934 -0.42182335 -0.18567187 -0.483721 -0.16140372 -0.16244794 -0.9106705 0.38724262 -0.13280426 0.15106376 0.42689916 0.6548562 -0.54859626 -0.14663064 -0.3308925 -0.2508766 -0.27843592 0.31600353 0.4642305 -0.098871134 -1.1245185 0.2010113 0.013500878 0.32584652 -0.5196057 -0.24485725 -0.24583289 0.031052511 -0.27553436 0.25425094 -1.0517095 0.12593642 -0.63761395 -0.5773707 -1.0424333 0.45061904 -0.4566306 0.9773689 0.193823 -0.17671707 0.5142459 0.17704786 -0.14058974 -0.02622694 0.23576151 -0.40254375 0.81323713 -0.61736494 -0.2878868 0.68711644 0.42221457 -0.3072405 -0.32371435 -0.9443953 -0.78064024 0.58966374 -0.7799947 0.009863633 -0.7068285
69 0.054876927 0.2955125 -0.8719876 -0.19975905 0.28039193 -0.86855453 0.2801271 -0.6799844 -0.45976874 -0.9975918 0.2669416 0.74722916 -0.618108 -0.7737625 -0.14980009 -0.005368792 0.46129096 -0.38769636 0.5722724 0.83323574 -0.37694624 0.3991687 -0.3162829 0.0553014 -0.1957368 0.5071951 0.054506574 0.024833608 -0.14624563 0.7472192 -0.840923 -0.10885881 0.20063801 -0.8829221 -0.13586982 -0.5971035 0.31335846 0.503067 -0.86951905 -0.42381403 -0.62300676 -0.4718691 -0.035734735 -0.030314524 -0.1276192 -0.07188565 -0.10115365 0.57324153 0.084868185 0.5458231 -1.1023885 0.2915478 0.010363665 0.45389354 -0.2531658 -0.16339631 -0.5469312 -0.63066363 0.39833197 -0.19385338 0.26526695 -0.16261324 0.07053396 0.33215833 0.30076107 0.5857278 0.5152279 -0.23239452 -0.091649026 -0.5133385 -0.52381504 -0.084169485 -0.4400108 -0.060692012 0.0027279614 -0.96771616 0.62243116 -0.22555327 0.027682662 0.41693482 0.7505626 -0.57643676 -0.037454974 -0.3577561 -0.4126433 -0.30840158 0.37692776 0.37275386 -0.07488211 -1.1764784 0.10356337 0.009334784 0.22796099 -0.4969479 -0.19465649 -0.25490028 -0.018777194 -0.32810873 0.2629718 -0.96120214 0.14173138 -0.5838022 -0.56749165 -1.0178376 0.34845698 -0.24138558 0.8328296 -0.120237745 -0.15585715 0.5448579 0.3211044 -0.2326107 -0.17628211 0.37039602 -0.42257333 0.9176799 -0.7080942 -0.37720796 0.6699447 0.45120195 -0.36432135 -0.24709338 -0.8148139 -0.85204315 0.62187606 -0.7407274 0.16155435 -0.5631003
107 -0.198755 -0.05146242 -0.3023809 -0.03979054 0.71226394 0.051501367 -0.7352228 -0.30149156 0.43097225 -0.1336978 0.0052916175 -0.53395903 -0.27022678 0.28825164 -0.31510532 -0.60745585 0.4948443 -0.89971673 0.8110343 0.32625774 -0.7154362 0.016872806 -0.30013704 -0.16063398 0.17572747 -0.67851317 0.031630497 0.3154487 -0.11571793 -0.18889795 -0.21374698 -0.17575845 0.8572258 -0.6705793 0.5135812 0.67367065 0.5342345 -0.034911036 -0.47509238 -0.4067466 -0.43242592 -0.77494746 0.2658585 0.503919 -0.45113873 -0.1551896 -0.02593195 0.16623096 0.35536617 0.31599376 -0.6473865 0.5514202 -0.32009333 1.218733 0.7124579 0.6457304 -1.0681963 0.008256294 -0.3144876 0.35295233 -0.53840786 -0.05150006 -0.021199403 -0.044856373 0.7151489 0.14685032 0.032363273 -0.35400975 1.0901297 0.49042842 0.054170422 -0.2757143 -0.54458106 0.32217377 -0.13093059 -0.6036889 -0.05621693 -0.063708715 -0.5793531 -0.14036162 0.4015573 -0.6456926 -0.60121685 0.60001194 -0.45232236 -0.6512643 0.041795503 -0.20982394 -0.047595996 -0.027536765 0.2154474 0.8515525 -0.37574348 -1.1707972 -0.103707775 0.017566865 0.076454245 0.2779937 -0.14186738 -0.19535142 0.26887083 -0.50307035 -0.54945314 0.13951811 0.49334887 0.14932021 -0.18590854 -0.63726664 0.52931845 0.018469075 -0.044984657 -0.254525 0.32766885 -0.63892287 0.26287696 0.24807455 -0.365472 -0.9108194 0.7970803 -0.33924654 -0.09091991 -0.088379234 -0.37810984 -0.869269 -0.07970388 1.0330957 0.86262155 0.35948285
314 0.14637809 -0.18759735 -0.11391458 0.5358962 0.21880953 0.6881677 0.37597254 0.4226861 -0.73620075 0.00040370785 0.23696998 0.07743073 -0.24527237 -0.3193895 0.02390079 0.6751228 0.0744578 -0.49093962 -0.28616363 0.80945855 -0.10375854 -0.2968315 -0.089769304 -0.40449417 0.8176475 0.34262753 -0.12321645 0.1505348 0.083011515 0.1496568 -0.40090004 -0.93098587 0.7257261 0.11302451 0.45426258 -0.21277177 0.72839504 0.27416936 0.26825315 -0.11419267 0.2372286 -1.2889534 -0.54953986 1.0679959 0.9379524 -0.9305356 -0.7553688 0.92657065 -0.4111801 -0.014080305 -0.34062573 0.06339318 0.11855053 0.18764374 0.49618462 0.17335512 -0.11242238 -0.45176274 0.7758797 0.21870597 -0.23656452 0.41965017 -0.01236152 -0.5880532 -0.21585372 0.38135782 -1.037989 0.38275287 0.3909462 -0.87873363 -0.18144616 -0.009468954 0.16174303 -0.35454562 0.7876712 0.24724703 0.28725752 0.023389032 -0.3347517 0.7948943 -0.85392255 0.21231867 -0.0713677 -0.47191054 -0.16060582 -0.34072822 0.34030765 0.117715515 0.10400685 -0.42479035 -0.17166601 -0.53005886 0.2460535 -0.19719467 -0.27247426 -0.07223055 0.5350322 0.1344871 0.2694689 -0.4450843 -0.303546 -0.30117962 0.2143254 -0.23038518 0.552918 0.5866351 -0.09282251 -0.43967384 -0.15359989 -0.0402462 -0.26295882 -0.25715223 -0.030873653 0.8142179 0.05082674 -0.3428632 -1.0475321 0.047193512 0.32800317 0.051203705 -0.36714458 -0.6691 -0.3754747 0.0134329125 0.29162422 -0.2883665 -0.55632913 -0.16821165
308 0.28276154 -0.29729924 -0.15112507 0.67165303 0.17741726 0.69457966 0.25563523 0.37278384 -0.8773173 0.04256923 0.23957205 0.045051523 -0.31372994 -0.1659265 -0.005982617 0.72079164 0.033551086 -0.38890094 -0.28050873 0.8741784 -0.16389157 -0.35380617 -0.07659266 -0.26894975 0.73753065 0.36182085 -0.06953815 0.20233464 0.0021207659 0.19785056 -0.37357002 -0.97838914 0.751349 0.23999041 0.41299486 -0.11330718 0.6733484 0.28565153 0.23001303 -0.13927236 0.18506749 -1.2410235 -0.43990985 1.03919 0.99674577 -0.8989015 -0.7349706 0.9795433 -0.47669822 0.073677786 -0.33371574 0.23370558 0.113479696 0.43158945 0.5599444 0.16631395 -0.046847336 -0.4692716 0.8153983 0.21151307 -0.2592912 0.33357257 0.07422666 -0.6048512 -0.18301702 0.32017967 -0.9335263 0.32694587 0.4324628 -0.90281546 -0.27232203 0.007492354 0.114568405 -0.27874225 0.6936872 0.15003838 0.2130778 0.05310812 -0.5265168 0.7516481 -0.9970597 0.17393042 -0.1368731 -0.46655056 -0.24650222 -0.35972065 0.3019357 -0.024013989 0.08186516 -0.15969993 -0.23528689 -0.6454601 0.4149494 -0.12281987 -0.1699896 -0.031360824 0.60928196 0.10561521 0.31534904 -0.37591875 -0.32442388 -0.15126842 0.1697885 -0.15426925 0.55281055 0.5957177 -0.08769714 -0.5944828 -0.31163833 -0.15686 -0.18394221 -0.27416342 -0.016129937 0.8062685 0.17285289 -0.25560805 -1.0655229 0.031779505 0.26977503 -0.01017508 -0.407629 -0.526818 -0.23345673 0.058323808 0.17432913 -0.13727123 -0.60847765 -0.07619998
136 -0.3471015 -0.01480125 0.063836135 -0.028239245 0.15532486 -0.5051913 0.5268672 0.15864265 0.106756955 -0.9705303 0.0029113705 -0.23737618 0.44588804 0.18825284 0.09425529 -0.18706451 -0.517623 0.35669357 0.3110741 -0.06067068 -0.5305584 0.2739413 -0.100063704 0.1600809 0.5603096 -0.5218384 -0.48447147 -0.95391446 0.020650405 -0.04046593 0.025157575 -0.6947011 0.102133885 -0.36755958 0.5314394 0.08802747 0.31898457 0.040555842 -0.31378943 0.32337102 -0.10287864 -0.10333543 -0.19537964 -0.41760212 0.43456483 -0.14699076 -0.5331014 -0.20903417 -0.99682415 0.1548908 -0.70276225 0.12519914 -0.34671444 0.6240989 0.45682818 0.44743726 1.0230513 0.19948748 -0.9427456 0.6386532 0.2910008 -0.3543321 -0.081352845 0.30223867 0.14237343 -0.052868273 -0.16968703 0.44084772 -0.29258654 0.33857316 -0.57614267 -0.6489598 0.7429908 0.6594677 -0.29476467 -0.1309609 0.066262074 -0.5256667 -0.37933126 1.054862 0.55574447 -0.110860206 -0.936778 0.3850556 0.7358826 -0.41507804 0.20941943 -0.45617336 -0.2230077 -0.46952143 0.051359493 -0.48515144 -0.06493065 -0.5052456 0.41310564 0.2451327 0.49379808 0.22643413 0.21651483 -0.02360599 -0.14398137 0.5933175 0.7043931 0.4700736 0.0013139143 -0.12076923 0.2557088 0.37380394 0.48938563 -0.34623164 -0.21683662 -0.004646776 -0.6452033 0.1514022 -0.08072101 0.5139128 -0.2875088 -1.1315076 0.44106603 0.19769193 -0.421317 0.015543344 -0.615572 0.0050877784 0.16915855 -0.097467974 -0.25333154 -0.22461282
503 0.110781506 -0.087889716 0.113100365 0.21655923 0.11310472 -0.007992766 -0.058997314 -0.28127214 -0.019868987 -0.1398184 -0.08891643 0.2360481 0.16093343 -0.114828095 0.052953195 -0.01052449 0.3650843 0.27165866 0.008077284 0.2516634 0.15641396 -0.279304 0.041312426 -0.08958979 -0.10367945 0.3681592 -0.3689968 -0.08541986 -0.06395936 0.54551023 -0.478437 0.12878011 0.052555036 -0.047105566 0.52318203 0.019093547 -0.018931724 0.27253336 -0.23346418 -0.11042836 0.38471264 -0.0006398229 -0.13505784 0.16618036 -0.07540767 -0.09629067 -0.43625984 -0.13268963 -0.4590013 0.14938244 -0.6252812 0.19449182 0.122207776 0.13216484 0.09547309 0.3768515 -0.02349588 0.07674531 -0.2023425 -0.04086632 -0.22507536 -0.15274999 0.15188475 0.04618984 0.51289016 -0.022747137 -0.64475614 0.3383353 -0.4242162 -0.10188474 0.019473396 0.31310546 0.13265659 0.26506466 0.11294581 -0.3736746 -0.45686606 -0.41082793 -0.35387614 -0.0031217167 0.11827481 0.20818496 -0.31689486 0.62493366 -0.26242915 0.010532476 0.27960458 -0.095351584 0.53008306 0.0767862 0.099084474 0.33479384 0.13538544 0.16835746 -0.06529303 0.15670143 0.18928559 0.2583187 0.09855333 -0.13371493 0.34796804 -0.474733 0.028871022 -0.33372408 0.2445469 -0.04642009 0.11710857 0.021517966 0.34691676 -0.12115373 0.10457821 0.016660431 0.07682859 0.23975591 0.1540085 -0.13981633 0.46867728 0.21866664 0.19126421 0.021431647 -0.32802257 -0.26173583 -0.30413327 0.03415462 0.29515928 -0.20107478 -0.11983507 -0.08641146
66 -0.4209504 -0.016411612 -0.00478644 -0.0797585 0.017985784 -0.48736656 0.69557244 0.28759244 0.13826463 -0.9055224 0.040414613 -0.2608704 0.42569813 0.26039067 0.01605306 -0.17433196 -0.51750463 0.47226065 0.17820969 0.029637353 -0.48527107 0.26278126 -0.17060074 0.2161883 0.58482254 -0.62525636 -0.55248696 -0.95622504 -0.04711922 -0.04909574 0.024248078 -0.8663517 0.044888567 -0.32318062 0.4296304 0.14159186 0.43210247 0.15933466 -0.31891075 0.28956643 -0.05802525 -0.24203005 -0.22803749 -0.41572934 0.55014753 -0.037316293 -0.5317936 -0.2718893 -0.9046884 0.13525933 -0.59880257 0.14815298 -0.22293742 0.6112016 0.22291936 0.24216563 0.9789823 0.09590532 -0.9110043 0.6216202 0.392716 -0.22387323 -0.18639614 0.24997714 0.11560953 -0.085135415 -0.1833841 0.4165928 -0.2367863 0.3605123 -0.7194902 -0.70613396 0.6659317 0.8193391 -0.31293207 -0.20178525 0.15322596 -0.62087965 -0.3442911 1.0326613 0.48074368 -0.123827994 -1.0492021 0.3527166 0.6518349 -0.36978814 0.33804113 -0.49209642 -0.026003351 -0.39316806 0.07886981 -0.48859662 -0.21267577 -0.32199842 0.482616 0.4343804 0.6122764 0.1433456 0.20347114 -0.1758931 -0.05434115 0.5404513 0.65552676 0.49578908 0.008182337 -0.12514867 0.21234027 0.3567639 0.5738649 -0.36239347 -0.14616805 -0.0051378123 -0.6683749 0.26412186 0.027209911 0.6324635 -0.1881142 -0.7783782 0.39130333 0.048885196 -0.3973007 0.044138063 -0.6070278 0.030001171 0.2969555 -0.06718369 -0.35715437 -0.26561162
247 0.2270517 -0.20695055 0.14269201 0.18666083 0.117068626 -0.08233944 -0.11393071 -0.23601456 0.019188922 -0.17525938 -0.110672586 0.26758182 0.24032184 -0.006348329 0.038854882 0.06782464 0.34947687 0.2629828 0.02642634 0.3198499 0.13730992 -0.34833717 0.050086472 0.03569587 -0.21232693 0.40860447 -0.42970031 0.005390828 -0.12262176 0.5361226 -0.38141075 0.011165857 -0.056970406 -0.047889806 0.42426682 0.11620685 0.07109401 0.23271275 -0.16713402 -0.059409115 0.3380758 0.03128958 -0.07230364 0.10482721 -0.17542866 -0.06963564 -0.42286155 -0.13281836 -0.5220821 0.03319473 -0.6293639 0.14889844 0.18551916 0.20035769 0.02249296 0.30915287 -0.043032255 0.12253655 -0.14244488 -0.10273606 -0.29482803 -0.1984169 0.24408232 -0.019850975 0.4682075 0.09604959 -0.6334411 0.355926 -0.48161325 -0.05434308 0.09996325 0.2920779 0.1067834 0.21802403 0.14683811 -0.24741848 -0.4655684 -0.33909824 -0.22515075 -0.0032295163 0.13665296 0.15352346 -0.29612646 0.58820534 -0.16456315 -0.16111371 0.27960944 -0.14051117 0.5650241 0.17377391 0.1505302 0.3262302 0.15314122 0.09730835 0.11424698 0.15023988 0.24844383 0.23745155 0.06904411 -0.12017781 0.35178378 -0.4121778 0.12039868 -0.26199564 0.20922488 -0.07571091 0.22811426 0.055447917 0.31520706 0.0324116 0.13642764 0.060679574 0.054110184 0.20316255 0.20924516 -0.04671328 0.4204622 0.17719075 0.23496534 0.01893436 -0.3094423 -0.3310047 -0.30330226 0.08593634 0.2652296 -0.043909352 -0.14423615 -0.10134604
62 -0.37653708 0.020410113 0.034483045 -0.057558563 0.19987597 -0.42746994 0.5706775 0.20837468 0.17937694 -0.9539917 -0.002577334 -0.30445302 0.4251726 0.12126758 0.05774433 -0.1944961 -0.64467144 0.54305714 0.257001 -0.057408575 -0.48116973 0.25458708 -0.19924086 0.27183664 0.5479193 -0.4330736 -0.4914985 -0.948589 -0.0899945 -0.0023072776 0.031193094 -0.68575025 0.028435342 -0.38710564 0.54414505 0.041361928 0.29256305 0.15526767 -0.33836854 0.33075055 -0.04545585 -0.23338075 -0.21019311 -0.3322798 0.46853238 -0.10613225 -0.4512066 -0.14365219 -0.9539082 0.15937015 -0.5427963 0.07200863 -0.4147762 0.6152458 0.36492357 0.42240867 1.0153311 0.14058718 -0.9415432 0.5982561 0.2578017 -0.24598937 -0.2421324 0.22036983 0.002629845 0.007881629 -0.21549796 0.43744954 -0.27529517 0.3592429 -0.46149382 -0.74545795 0.714201 0.6486069 -0.3631177 -0.10265962 0.09210242 -0.5434891 -0.338643 0.95427513 0.4645366 -0.07383641 -1.0208843 0.47118837 0.75825536 -0.36981422 0.34639573 -0.49151576 -0.13325949 -0.52923363 0.06645107 -0.6087186 -0.15210672 -0.38760263 0.47964936 0.36538482 0.62210995 0.23981288 0.18502761 -0.13283049 -0.08025125 0.5619363 0.75869185 0.47919783 0.04640939 -0.090750374 0.18946621 0.3809249 0.46443892 -0.37424073 -0.088235274 -0.00799568 -0.6348377 0.2283351 -0.19261545 0.6151879 -0.2435888 -0.9434099 0.4113782 0.14547025 -0.41719812 -0.019728636 -0.5538062 0.04954033 0.2747448 -0.053414963 -0.2985642 -0.26011363
498 0.16265757 -0.1565004 0.14403029 0.14591527 0.16608785 0.062555246 0.015140186 -0.28069422 0.008795159 -0.11707817 -0.2131068 0.23753577 0.27173784 -0.03318615 -0.041609924 0.063458934 0.32465047 0.0728948 -0.0050103613 0.3113084 0.17365134 -0.19747771 0.036656976 0.16595192 -0.16860434 0.34394145 -0.35728988 -0.09014799 -0.0827118 0.54682356 -0.27395263 0.166896 0.08217022 -0.11291401 0.37797627 0.02470611 0.051887676 0.40683216 -0.2073695 -0.12878543 0.4646159 0.09321125 -0.058373675 0.15427819 -0.23519726 -0.12634408 -0.44463515 -0.17986913 -0.50751656 0.02680978 -0.59545565 0.27558056 0.16404533 0.06812974 0.10233513 0.374569 -0.018185887 0.08674483 -0.18837523 -0.14047354 -0.3047567 -0.09122676 0.21358566 0.09537097 0.3814086 0.13990359 -0.74165004 0.41092974 -0.41368714 0.03989752 0.04229757 0.27037987 0.1588301 0.23182584 0.20757502 -0.2666006 -0.5249862 -0.30051363 -0.19411623 0.046874035 0.1167703 0.17205995 -0.27198613 0.5812024 -0.13679159 -0.13012804 0.3568622 -0.11655712 0.48908997 0.10891276 0.17246059 0.41414988 0.10116766 0.16485433 0.08863003 0.15010908 0.13895312 0.18624333 0.08451126 -0.14945905 0.23896065 -0.40183854 0.050927937 -0.30518344 0.14532253 -0.18880352 0.26423138 -0.009089324 0.40751898 -0.13152179 0.34537154 0.10010061 0.13459624 0.16485253 0.12594937 -0.050260123 0.44947258 0.17403866 0.18284917 0.033565793 -0.3719182 -0.3560456 -0.2132465 0.032455772 0.29673147 -0.15053281 -0.07087615 -0.020063823
252 0.12582785 -0.12513664 0.017069643 0.22139765 0.10701081 -0.15972498 -0.1843301 -0.22001903 -0.028330782 -0.1366181 -0.11834474 0.30541095 0.110034704 0.016421426 0.018534949 0.06511631 0.41757202 0.22387284 -0.006118159 0.29406402 0.064505994 -0.3730269 0.0319022 0.08580003 -0.1594441 0.41809958 -0.4034516 -0.14081916 -0.0610072 0.4571147 -0.40723833 0.0052634063 -0.028216356 0.004196021 0.51144254 -0.0062958645 0.022498531 0.3162534 -0.20601918 -0.068057135 0.40940106 -0.029087177 -0.07529144 0.15812413 -0.14034955 -0.061920557 -0.47825927 -0.042829324 -0.6291617 0.049591813 -0.64816743 0.26568457 0.19270992 0.12589137 0.06244053 0.26136413 0.027559524 0.059550438 -0.15989052 -0.0139468 -0.22765131 -0.25122216 0.13250168 -0.17873596 0.4742395 0.0046199565 -0.7421845 0.4008194 -0.36574835 -0.0478595 0.19193281 0.2583982 0.2006509 0.18343736 0.14093624 -0.2332447 -0.4416573 -0.29607734 -0.2856227 -0.026731001 0.19816674 0.2520343 -0.2181019 0.68871963 -0.18822803 -0.027753474 0.33785355 -0.14516607 0.50250924 0.03279238 0.20233308 0.41726825 0.11581642 0.15100189 -0.047328528 0.19950356 0.24888545 0.24805315 0.09280465 -0.18921186 0.32946527 -0.48370463 0.012632787 -0.31010708 0.30303472 -0.0641279 0.20437287 -0.026148314 0.28758273 -0.071210034 0.18502724 -0.05456636 0.08862804 0.21786487 0.17441095 -0.12685755 0.42595756 0.20825319 0.30549648 0.08106944 -0.36657774 -0.25881663 -0.26085445 0.0639503 0.3257617 -0.21056429 -0.018172491 -0.01753549
290 0.03360974 0.03582935 0.23725 0.19885546 0.27157223 0.070461616 -0.028152844 -0.24925387 0.05419441 -0.08811691 -0.041588306 0.30328178 0.27045867 0.025674753 -0.15252298 0.009096743 0.5605524 0.19179742 -0.0095276255 0.21998328 0.055044822 -0.34159464 -0.06797244 -0.011172685 -0.18938631 0.419517 -0.30267796 -0.09344903 -0.06449439 0.5928889 -0.49615988 -0.031700853 0.07544755 0.037606377 0.43890947 -0.1345108 -0.024737589 0.35202637 -0.21624134 -0.21962862 0.31554487 0.04171424 -0.24149321 0.12957591 0.1377794 0.0073269266 -0.36944893 -0.12773912 -0.5729622 0.013621258 -0.6427623 0.30579475 0.15594637 0.034519106 0.2319104 0.16442972 0.020038042 0.34497124 -0.1462904 -0.16684379 -0.22574428 -0.1898226 0.18363494 0.01726773 0.5925063 0.049335852 -0.6119533 0.33851916 -0.42575538 -0.19555123 0.007214554 0.20735383 0.20137997 0.10458505 0.13663787 -0.100177616 -0.38023287 -0.30795246 -0.42769125 -0.03712824 0.059119284 0.25149754 -0.26635465 0.40692914 -0.12573458 -0.028004851 0.22377858 -0.3488558 0.4106882 -0.0068942746 0.16088666 0.43030164 0.097812004 -0.056497276 0.15109088 0.11420827 0.13748877 0.219074 -0.042506773 -0.10535656 0.26870605 -0.52973634 -0.02289324 -0.17356712 0.14212888 -0.0073751244 0.2379165 -0.17425671 0.25641307 0.18282506 0.12911266 -0.07796996 0.000752019 0.15144855 -0.041774116 -0.08541115 0.37171504 0.0132567985 0.16278481 0.037177514 -0.12585847 -0.11611122 -0.27929217 0.050138097 -0.09042426 -0.06782415 0.10649731 -0.06561387
132 -0.43760687 0.08497354 0.057188552 -0.16707611 0.044488493 -0.52116597 0.5635351 0.20456001 0.24143872 -0.80907553 -0.027631685 -0.27841565 0.34161535 0.13561763 -0.07608972 -0.15389581 -0.5235162 0.41414878 0.22712515 -0.12611787 -0.4546463 0.13786606 -0.15902057 0.12495121 0.43460268 -0.56877613 -0.5004441 -1.0302813 0.034267455 -0.07820668 -0.00896874 -0.7440024 0.08943575 -0.4210795 0.4457156 0.08705501 0.38235083 0.15612544 -0.29164484 0.3460526 -0.09226267 -0.2194402 -0.26245236 -0.39814147 0.5087017 -0.066821374 -0.5401904 -0.13616286 -0.92781734 0.11912589 -0.6294789 0.12763183 -0.22816585 0.5666235 0.30783913 0.30187905 0.9746232 0.14011148 -0.96759784 0.6665195 0.28124365 -0.34950018 -0.2028647 0.29414174 0.07438115 -0.029612575 -0.16116937 0.4308586 -0.22602057 0.37457025 -0.542332 -0.65786123 0.71987116 0.7253449 -0.27349502 -0.08605791 0.09323257 -0.63579756 -0.41627523 1.0002164 0.42570832 -0.2400088 -0.9238993 0.40661654 0.7014262 -0.28582075 0.36493918 -0.4745217 -0.09211535 -0.5178605 0.0717686 -0.46478692 -0.20897396 -0.3081154 0.5590278 0.33902895 0.51087517 0.14794351 0.224239 -0.13155325 -0.1409854 0.61054754 0.61711335 0.5161462 -0.03525035 -0.04234387 0.26370797 0.49213377 0.40496868 -0.3664353 -0.0883654 0.07385452 -0.68869174 0.31308 -0.013392352 0.7313464 -0.30285925 -0.9291846 0.47128716 0.0062171184 -0.49427816 -0.016245058 -0.64106107 0.13398853 0.31683514 -0.087462656 -0.3722692 -0.34691975
391 -0.00354063 -0.080870666 0.26032674 0.22020228 0.2479129 0.042406928 -0.10161177 -0.34655136 0.11353482 -0.08723087 0.0601599 0.24831913 0.2718074 0.16335787 -0.17717867 0.061492633 0.5509125 0.10916116 -0.057244748 0.06697553 0.02938511 -0.35078254 -0.08488104 0.07915461 -0.3541438 0.47125754 -0.25154868 0.036920402 0.06701177 0.3928038 -0.4061607 -0.1553392 0.03722737 0.19265187 0.3355614 -0.16334364 0.11827524 0.3822735 -0.21539687 -0.19769096 0.22099088 -0.13441801 -0.10650962 0.050721645 0.114789955 -0.06883405 -0.509246 -0.0825772 -0.40881327 0.012819181 -0.60972106 0.42195898 0.18981318 0.05903915 0.16772293 0.17462055 0.11908116 0.3998467 -0.14462873 -0.053413805 -0.24347784 -0.19384205 0.22699293 -0.07790104 0.54259634 0.053229675 -0.5826498 0.30956107 -0.25819674 -0.060152836 -0.09783953 0.2887704 0.17936732 0.15330423 0.13425353 -0.029017268 -0.3452282 -0.2646462 -0.2954149 0.027460326 0.037196953 0.19397944 -0.3327535 0.4185449 -0.18283117 -0.13062719 0.15344757 -0.24050505 0.4220269 0.010400568 0.2810734 0.47368363 0.14688356 -0.057904344 0.120567925 0.097575136 0.16068166 0.20454042 -0.07646597 -0.078189015 0.33827657 -0.55907553 -0.07561955 -0.20566356 0.05894361 -0.05651416 0.39997268 -0.23315306 0.24678056 0.16238123 0.034788914 -0.09118712 0.00925153 0.3001981 0.061617877 -0.041927062 0.2048949 -0.19455308 0.13489448 0.094096296 -0.22672462 -0.1834671 -0.12098106 0.14677995 -0.057481162 -0.046800096 0.0810805 -0.04140423
59 -0.2646074 0.5158034 0.9750818 -0.4553399 0.2654025 0.27437556 -0.15600052 -0.22962089 0.07098177 -0.15387873 -0.020616079 0.39422154 0.6845283 -0.6611258 0.15674564 -0.29148877 0.046006918 0.55839527 -0.15979132 0.49044767 -0.15367228 -0.08257822 0.20124575 -0.5631206 1.0777076 -0.12143898 -0.7856197 -0.24945845 -0.15401123 0.0209999 0.07988927 -0.45653075 0.093668215 -1.4507737 0.33963788 -0.5016343 -0.09980653 0.2718411 0.01995321 -0.5724177 0.58284634 0.632855 -0.40642935 0.12211778 -0.07185687 0.11635178 -0.3371451 1.11174 0.11291843 0.017195396 0.064247206 0.20765942 -0.8100162 0.72683865 0.1224395 0.90111566 0.056848958 -0.6469937 -0.20482829 0.30678594 0.27653196 0.60344297 0.74797124 -0.10989963 0.53296584 0.41101384 -0.9847215 0.58382344 0.067994595 -1.5669684 -0.19208506 0.07906177 0.52109635 -0.21980712 0.21279305 0.12577814 0.72405946 0.45386502 -0.26989383 0.406868 -0.046289515 0.6699981 0.53319186 0.64335185 0.11100284 -0.7628209 0.656378 0.17602411 0.10141168 -0.07096393 -0.57075036 -0.65053546 0.24406995 0.50088865 -0.57312423 0.048203625 0.109779984 -0.16611944 0.37127942 0.106151685 0.3405549 -0.12981904 0.14814004 0.6547965 -0.16518433 -0.13716018 0.19833952 0.21258795 -0.32968682 0.50331783 -0.35007593 -0.26521894 0.17287625 -0.17838027 -0.6725722 0.7976035 -1.1924284 -0.066456385 0.7154495 -0.2715053 -0.16248947 -0.047630675 -0.725329 0.2790154 0.50327975 -0.047383565 -0.05083579 -0.22006951
129 -0.09595069 0.49811178 0.9469002 -0.51449376 0.33419305 0.25526094 -0.19739072 -0.32852834 0.04959905 -0.15078273 -0.05842539 0.3412266 0.734378 -0.55860615 0.15431933 -0.46070865 0.067984775 0.6160259 -0.14578456 0.5194899 0.0102407755 -0.14454691 0.18314244 -0.5349012 0.89112484 -0.19431987 -0.79592115 -0.148329 -0.25147957 0.008795836 0.043687064 -0.45967922 0.10169731 -1.4517258 0.40217248 -0.674747 -0.094427325 0.34522524 -0.052714508 -0.7015928 0.587686 0.80945915 -0.51970595 0.10921353 -0.0024946588 0.14600328 -0.4474366 1.1654085 0.20245755 0.13244103 0.13938999 0.21644408 -0.6207079 0.8770334 0.23136517 0.7455508 0.12432822 -0.5848347 -0.36463466 0.16174442 0.2599673 0.83431494 0.7822214 -0.16234729 0.5992745 0.3366662 -0.8600068 0.65518785 0.060348272 -1.528529 -0.36162654 0.07508361 0.47323865 -0.16589396 0.24277069 0.13661407 0.68306553 0.39097428 -0.30717772 0.5050283 0.03078493 0.5626022 0.43778685 0.53740114 0.18461247 -0.80147696 0.5949763 0.17898624 -0.031908296 0.07148454 -0.45718083 -0.69113207 0.29438332 0.6014951 -0.6377282 0.18692866 0.19714183 -0.21586725 0.37249988 0.14651166 0.27853942 -0.1187629 0.09797594 0.6620281 -0.08093889 -0.10417766 0.24833587 0.26306057 -0.36285022 0.38503268 -0.47131777 -0.19625852 0.3095082 -0.18459302 -0.61426735 0.85978353 -1.1358947 -0.083637014 0.9245678 -0.2706348 -0.12559307 -0.07629211 -0.83412564 0.22543189 0.53579086 -0.15674025 -0.09481041 -0.27957532
224 0.023466492 -0.034053694 -0.023748895 0.95678806 -0.019398492 0.26509935 0.3326241 0.49753082 -0.5105806 -0.05595581 -0.10150291 -0.49402264 -0.12314553 -0.50399524 0.08224085 -0.11433313 0.28457835 -0.040836506 -0.04233648 0.5132097 0.028994367 -0.48933792 0.13876472 -0.17535178 0.31471524 0.017273387 -0.09265689 0.2668132 0.25486732 0.6252627 -0.0107066175 -1.2774304 0.73403835 -0.05618493 0.40991575 0.18228734 0.16574815 0.6186975 0.2685572 -0.16043614 0.45301515 -1.0369861 -0.71766156 0.90024406 0.7192751 -0.3217588 -0.6501914 0.98444897 -0.42527735 0.139131 0.13114221 -0.23123197 0.09740324 0.090315975 0.4849683 0.26657665 -0.09079091 -0.54566294 0.46327102 0.31574202 -0.578343 0.08500489 -0.13798505 -0.53183484 -0.14345434 0.13866103 -0.75757736 0.4942883 0.29449263 -0.7584974 -0.13088371 -0.19756183 0.10858472 0.21996075 0.73922414 -0.01485385 0.06758715 -0.14701366 -0.9015115 0.8269947 -0.76891696 0.40986168 -0.01229927 -0.38302794 -0.25552198 -0.18783486 0.40412742 0.3880332 0.1408284 -0.4710301 0.09751334 -0.6545218 0.41875553 -0.13996004 -0.41833192 0.16628861 0.3916191 0.6002707 0.17712533 -0.30932724 -0.05870178 -0.4874624 0.12585157 -0.19173042 0.25676164 0.06761491 -0.36040628 -0.42529866 -0.29471916 0.026320582 -0.26655504 -0.31093827 0.14704302 0.35470313 0.061381314 -0.20783496 -0.86313564 -0.30499282 0.3957759 -0.063386835 -0.15466136 -0.40782645 -0.016313357 0.074688114 0.36239925 -0.6690111 -0.8561953 0.14036816
538 0.09766818 -0.12179442 0.13384186 0.16002014 0.29016164 -0.1465976 -0.062283874 -0.35764563 0.05570574 -0.19197021 -0.071256526 0.38452357 0.22231935 0.071955636 -0.05904804 0.06859387 0.50736225 0.24672003 -0.10566769 0.18728828 0.10829088 -0.23041634 -0.059139814 0.070904255 -0.2299684 0.40748644 -0.28570297 0.022568392 -0.04362104 0.43936533 -0.3730692 -0.08267592 0.06599458 0.1487193 0.56626403 -0.066300355 -0.0051199603 0.34341973 -0.02191127 -0.29194832 0.30172586 -0.08618116 -0.06680324 0.06756417 0.06109272 -0.1001903 -0.4168667 -0.12623268 -0.3981785 0.04612518 -0.626392 0.31671587 0.24196126 0.11280177 0.11468812 0.2914005 0.096693374 0.2914122 -0.10287716 -0.042732686 -0.37205708 -0.12623385 0.20138879 -0.013590644 0.5204564 -0.017714605 -0.6277338 0.43829632 -0.22236119 -0.02552729 -0.06926289 0.17013782 0.30835623 0.09999862 0.122846946 -0.12895769 -0.34020606 -0.2167764 -0.39096603 -0.023088187 0.10641523 0.16079548 -0.2607639 0.45971587 -0.17563727 -0.07510062 0.31710228 -0.075898364 0.49492502 0.0987684 0.31017357 0.3818349 0.1880633 -0.027619164 0.12357027 0.14321478 0.13589616 0.21682905 -0.04633188 -0.08238853 0.21928725 -0.5275657 -0.07889864 -0.19610663 0.14778812 0.103289396 0.33970374 -0.19477412 0.33685148 0.035753816 0.0950365 0.004438161 0.05238457 0.2293425 -0.017999463 -0.12225773 0.38157678 -0.12153242 0.22337267 -0.024336644 -0.11220551 -0.048264164 -0.2802043 0.049933985 0.0001466164 -0.10693025 0.024480542 -0.013212657
218 0.09849978 -0.012865774 0.012733334 0.89255494 0.07099099 0.31883898 0.40705478 0.5524265 -0.46144953 -0.007991298 -0.08927663 -0.38777107 -0.05847517 -0.6250917 0.0090682395 0.043997962 0.27242023 0.055487715 -0.10096089 0.7832594 0.07213254 -0.4741862 0.10929077 -0.14476319 0.2984867 0.16274545 -0.110611156 0.15234028 0.22544092 0.5461103 -0.0021242686 -1.2970505 0.8077297 -0.13149714 0.42453423 0.2182537 0.21641792 0.49310362 0.1615224 -0.21626893 0.36012554 -0.97506475 -0.79156876 0.938774 0.69848365 -0.43780237 -0.76119107 0.92755586 -0.2579447 0.2020748 0.05266255 -0.11985343 0.12710571 0.14884488 0.59789926 0.3586126 0.07561733 -0.5867689 0.49969262 0.36871344 -0.3774585 0.12435488 -0.079286866 -0.5141948 -0.08534379 0.22158396 -0.7603267 0.46298915 0.09774953 -0.7463376 -0.1333197 -0.060519308 0.11269324 0.20946029 0.8464832 0.043186378 0.11981092 -0.23017098 -0.91114956 0.64451236 -0.7590832 0.22798134 -0.038222805 -0.58335286 -0.20334142 -0.30442682 0.16560768 0.47001588 0.05146424 -0.414484 0.11896953 -0.67042947 0.41268918 -0.13538699 -0.354969 0.070001975 0.4600457 0.53022623 0.2640777 -0.27579048 -0.19090277 -0.44965315 0.18818846 -0.19755648 0.2968202 0.048683915 -0.2850748 -0.39988908 -0.27450168 0.0226832 -0.24700886 -0.4414097 0.16761996 0.46335235 0.06743871 -0.1982192 -0.8423025 -0.39321697 0.53660417 0.021452269 -0.0067660636 -0.47843525 -0.16067842 0.030927096 0.35732576 -0.71167564 -0.7805114 0.058984425
137 0.30990997 0.6479623 -0.1827013 -0.70070565 0.78642434 -0.5388437 0.04538092 0.64805937 0.5873159 -0.25695342 -0.17043637 -0.5984844 0.011457749 -0.015984403 -0.57769525 -1.1758459 0.1645555 -0.14041418 -0.32696038 -0.569055 -0.018974403 0.32650262 -0.096843936 0.5950625 0.4876338 0.111222975 -0.9256056 -0.020121397 -0.08608293 0.5217536 0.050209817 -0.33289012 0.43144003 -0.36899957 -0.3936721 -0.27685702 -0.37266988 -0.12146438 0.033249244 -0.49608776 0.964784 -0.29118174 0.361538 -0.1587923 0.17117657 -0.4090361 -0.6101097 0.30338728 -0.14407046 0.3035525 -0.7887627 -0.4522738 -0.30111971 0.25447044 0.3265958 0.2357545 -0.30778795 -0.13463761 -0.1421742 0.6176349 -0.05467542 -0.20989324 0.43439698 0.26480064 0.08631204 0.22571805 -0.6111654 -0.18506059 -0.2571672 -0.11041137 -0.2924507 0.0745336 0.15051918 0.004737906 0.5321736 0.76028615 0.26127502 0.048423816 -0.7258859 0.16227877 0.47362235 0.42466685 -0.026151018 -0.10842484 -0.3439189 -0.636295 0.64290076 -0.8325526 0.29285434 -0.46554092 -0.95194584 0.040205456 -0.17544387 0.1568512 0.56614226 0.22524817 -0.09862287 -0.84192604 0.29196802 0.41372037 0.5157101 -0.33531356 -0.14517784 0.013272882 0.102836005 -0.23185048 -0.39342448 0.2609704 -0.40211233 0.18832947 0.20594548 -0.4296883 -0.5113648 -0.23084883 -0.4306288 0.15398768 -0.87863004 -1.2882077 0.83681816 -0.45552525 0.3341152 -0.8028712 -0.7334274 0.27895817 1.0081596 0.44706962 0.13961962 -0.16134676
134 0.40775296 0.8638334 0.68537956 -0.18772826 -0.0054315403 -0.38664958 0.08067219 -0.042056136 0.4505899 -0.6657309 -0.17234316 0.23324051 0.054235596 -0.4706952 0.081612706 -0.50165445 0.15725726 0.031177599 0.1972998 -0.22848807 -0.097825386 -0.2494749 0.44153106 -0.61562353 0.07315855 -0.7138879 -0.4038229 0.43382838 0.018751103 0.21349987 0.4805539 -0.6232432 0.4923821 -0.18297185 0.38445085 -0.029759744 0.20506728 0.35425228 -0.09320549 -1.0019213 0.84269124 0.19959848 -0.13075435 -0.40105012 0.7724547 -0.545473 -0.8668729 0.44598272 -0.42533696 0.13809977 0.21622239 0.088624425 -0.76668733 -0.18872993 -0.3069915 0.22081548 0.8053498 -0.20085758 0.18943149 -0.3597481 -0.72752666 -0.35315537 -0.39154077 0.17520425 0.4534616 -0.30910403 -0.8224124 0.12792078 -0.21509567 -0.32169262 -1.2177378 0.25335285 -0.13347988 0.020158911 -0.40963945 0.20809434 0.505721 0.13668108 -0.07076556 -0.025479995 -0.05007159 0.02492641 0.1204471 -0.7341407 -0.1455138 -0.4405552 0.24158324 0.13037509 0.31899777 0.13887843 -0.4976121 -0.0025423085 0.0543815 -0.27925554 0.20622368 0.16807672 0.70831794 -0.061995264 -0.19216855 -0.5872774 0.103690274 -0.37782797 -0.5210571 0.29481563 -0.43903872 -0.15384047 -0.0029861736 -0.49422833 -0.38224465 0.25045285 -0.11741185 -0.5067168 0.19052532 -0.014807526 0.25007996 -0.03376333 0.1401719 -0.28256738 0.71258175 0.65305203 -0.17100044 -0.44468305 -0.80259377 -0.4981554 1.0064081 0.34701124 -0.16355017 0.43841916
68 0.39771548 0.66432464 0.6225383 -0.25360194 0.05205783 -0.32711336 0.10108208 -0.08025956 0.49838355 -0.7382389 -0.23800464 0.23409468 0.24997044 -0.34107953 0.010824838 -0.36859405 0.2531381 -0.0042289807 0.060555555 -0.3681123 -0.006890064 -0.14246479 0.43621203 -0.65265554 0.061911352 -0.73306894 -0.3358507 0.38900077 -0.102767795 0.26034302 0.511776 -0.7646313 0.39509502 0.054713633 0.2632718 -0.088192895 0.27767822 0.35796544 -0.24169244 -0.77210367 1.0863087 0.1046002 -0.10201851 -0.4116903 0.7284026 -0.76516104 -0.7570975 0.5494598 -0.15688987 0.06627211 0.27248517 0.13127272 -0.74223524 -0.21375054 -0.12696242 0.25893435 0.70382565 -0.19622482 0.16407637 -0.23658647 -0.3780156 -0.36323118 -0.41035116 0.3387247 0.4566656 -0.28294438 -0.77273214 -0.0059658457 -0.30057532 -0.2668479 -1.244078 0.100629024 -0.15899254 0.026453987 -0.28180254 0.31808197 0.5829519 0.26648784 -0.11559749 -0.09324342 -0.052161414 0.25260442 0.11199762 -0.8617461 -0.08543681 -0.41624966 0.13165925 0.21039948 0.29743326 0.15430075 -0.7304367 0.06152546 0.08916445 -0.16993512 0.21066877 0.21886979 0.7715487 -0.07301616 -0.22672477 -0.555266 0.31317663 -0.13844743 -0.5965857 0.31876954 -0.1805494 -0.29887545 0.10443119 -0.502215 -0.3168306 0.21885255 0.016874034 -0.4448926 0.11772297 0.0072753383 0.2812215 0.14097112 0.32326224 -0.15851603 0.7373049 0.67019016 -0.056861386 -0.30689037 -0.793996 -0.46231037 1.0254164 0.2630789 -0.12598161 0.541525
379 -0.019737482 0.0019282815 0.1289422 0.20344308 0.12487344 0.06919353 -0.1247332 -0.29725266 0.0940381 -0.016127955 -0.07667172 0.2443885 0.22363408 0.123834535 -0.14133677 0.13476774 0.61718696 0.22361179 -0.08699928 0.18995881 0.01964349 -0.27738094 -0.07580062 0.05649246 -0.2926889 0.3511405 -0.19600959 -0.11659991 0.012878827 0.5102788 -0.40505135 -0.1744181 0.09221818 0.122361034 0.4046345 -0.23883493 -0.031869896 0.29155892 -0.24114923 -0.13382088 0.24482952 -0.13753 -0.180746 0.102965936 0.08565469 -0.06550002 -0.4978344 0.007735647 -0.40113938 0.13197501 -0.69224185 0.47622225 0.1988122 0.15346615 0.10983408 0.22677617 0.15869804 0.27577898 -0.27099723 0.053169403 -0.26734623 -0.15520485 0.13744953 -0.11418229 0.64336824 0.15537125 -0.5655357 0.29299086 -0.2819345 -0.09771061 -0.1914134 0.30591667 0.24294984 0.07483245 0.101679645 -0.11568589 -0.26338914 -0.13326679 -0.4080583 -0.024159815 0.03674545 0.23324051 -0.30854046 0.44808796 -0.027703559 -0.0036219088 0.279245 -0.17876819 0.4066759 0.06076447 0.27710727 0.46572968 0.20011665 -0.016957453 0.13424222 0.19315514 0.11083365 0.22580884 -0.17261383 -0.12328353 0.22215568 -0.5070375 -0.089758135 -0.091365285 0.17165169 -0.0043524955 0.38329536 -0.21882132 0.29281744 0.3053253 0.110287465 -0.14927171 0.081506535 0.22871506 -0.017152207 -0.17088877 0.24813147 -0.1887576 0.096503794 -0.03683159 -0.15270442 -0.087214574 -0.30013794 0.14408037 -0.119508885 -0.042546082 0.10874877 -0.07987501
64 0.39257514 0.840618 0.6543456 -0.26760113 -0.06717948 -0.48074648 0.21556038 0.14599688 0.5097007 -0.7099391 -0.17944407 0.17479494 0.13310446 -0.3229439 0.25056157 -0.5057369 0.24448386 0.01781423 0.035552405 -0.2677205 -0.00056854694 -0.18913898 0.5074766 -0.72648466 0.16265006 -0.55817294 -0.43804738 0.48074797 -0.10096851 0.22634628 0.4802752 -0.68197274 0.5040762 -0.21839927 0.23746765 0.05889604 0.16890815 0.30519742 -0.24033889 -0.9497087 0.8543255 0.2487789 -0.11527786 -0.46171662 0.8261242 -0.5760184 -0.7420576 0.4240742 -0.25362948 0.16932203 0.22181834 0.101909205 -0.84040534 -0.24487482 -0.26492366 0.16954374 0.7057144 -0.2906685 0.23105012 -0.17082974 -0.69517565 -0.36891505 -0.43113124 0.25327274 0.56325823 -0.217707 -0.73273504 0.03563407 -0.32084608 -0.31363955 -1.0986286 0.23864025 -0.122279614 0.019126158 -0.36987436 0.18804121 0.5111536 0.18524812 -0.13955536 -0.035745576 -0.051479425 0.07698758 0.035764344 -0.73240393 -0.20286529 -0.44521922 0.11179222 0.070974104 0.2932057 0.14719725 -0.5647722 -0.07033393 0.1873761 -0.1854754 0.17660207 0.25573725 0.7031803 0.056171123 -0.12624158 -0.6895172 0.15995678 -0.45214632 -0.6524319 0.28098953 -0.1811781 -0.16591935 0.16003764 -0.48118687 -0.26346764 0.15905176 -0.07027481 -0.4406969 0.22038028 -0.006381566 0.12455991 0.011703135 0.1643641 -0.20489146 0.5167082 0.6379687 -0.20795275 -0.31407553 -0.8517049 -0.3471692 1.0030476 0.2422374 -0.061591677 0.38845608
138 0.5526168 0.6793667 0.6715514 -0.23505135 0.017854888 -0.2874069 0.1209539 0.029653983 0.58328134 -0.7666785 -0.018328415 0.2213342 0.258991 -0.2973428 -0.013257143 -0.50549006 0.1590296 0.06738361 0.14089856 -0.4494025 0.00476616 -0.104194745 0.34804884 -0.6797736 0.06878423 -0.8131979 -0.38528407 0.34816164 -0.08934468 0.17825688 0.42865786 -0.7882153 0.3333649 -0.07249642 0.27269772 -0.028763989 0.29436487 0.45844787 -0.16986133 -0.8399185 0.886015 0.22333463 -0.12810959 -0.3369184 0.7077607 -0.8044215 -0.799735 0.4017203 -0.11376448 0.19560492 0.18186063 0.11476702 -0.92291695 -0.24997199 -0.3091801 0.20488687 0.66473186 -0.2590074 0.07464229 -0.22443686 -0.49564013 -0.4029691 -0.43497857 0.43133086 0.5636055 -0.28232905 -0.8878024 0.22127429 -0.1907883 -0.2800192 -1.3635588 0.04228554 -0.2284573 0.15089072 -0.23178695 0.24934278 0.6179449 0.06577028 -0.12649925 0.054403566 -0.082285255 0.08692742 -0.03570085 -0.8992549 -0.14669472 -0.44713047 0.20102943 0.06082713 0.37384054 0.031151252 -0.80042446 -0.106188655 -0.021726565 -0.253368 0.2612328 0.18877183 0.8829798 -0.16708839 -0.19579488 -0.5237145 0.2103905 -0.06093276 -0.63838655 0.2803071 -0.17488544 -0.119238414 -0.01315763 -0.3576201 -0.24479276 0.22307175 0.039538395 -0.2980347 0.22773573 -0.0068006725 0.31929755 0.17368358 0.26317984 -0.12888512 0.76473457 0.62954545 -0.18061551 -0.45583168 -0.7974329 -0.49146596 1.0881178 0.2880169 -0.18144302 0.49281943
200 0.059599727 -0.08088977 0.06921838 0.28439707 0.23487438 -0.025231555 -0.19485652 -0.27271503 0.15250456 -0.059107885 -0.113897085 0.38003996 0.21096046 0.0863477 -0.16498528 -0.0038533916 0.2935267 0.28585452 -0.06823693 0.16690832 0.1588826 -0.17461507 -0.14596276 0.022021335 -0.23846482 0.38411438 -0.25773567 -0.12261687 -0.03560452 0.51889586 -0.3195851 -0.1621368 0.068479 0.10334559 0.43623003 0.027951282 0.09168182 0.34939048 -0.09982425 -0.106293224 0.24176595 0.037757773 -0.080631346 0.21570681 -0.042235494 -0.15508267 -0.37127346 -0.17442288 -0.4252372 0.07948546 -0.4525668 0.31251743 0.18554768 -0.084699996 0.05102747 0.23854016 0.007475815 0.37654236 -0.14475508 0.039482415 -0.2283937 -0.20682839 0.1853284 0.05221153 0.5936151 -0.06710928 -0.69549185 0.47423124 -0.31447074 -0.09951088 -0.027690519 0.26323935 0.32559 0.14656682 0.0751873 -0.18549246 -0.29780623 -0.27133557 -0.4206723 -0.21643643 0.13338758 0.18753028 -0.2397939 0.45939103 0.07055386 -0.07031625 0.2305521 -0.04599218 0.4605355 -0.02151772 0.19651008 0.44671196 0.16313475 -0.052137043 0.061704364 -0.06114625 0.19922432 0.15768404 -0.023881355 -0.07706649 0.37199718 -0.49808282 -0.040262613 -0.19618893 0.13419431 0.05760376 0.3016256 -0.16086306 0.2801245 0.16106357 0.11472757 -0.093543634 0.18977883 0.2670957 0.009758437 -0.1319211 0.30585933 -0.178754 0.1917032 0.05342126 -0.14931174 -0.064649515 -0.3155435 0.123893544 0.056078196 -0.10455639 -0.02530099 -0.13142781
67 0.3266617 0.5246188 -0.13004781 -0.4863141 0.69063175 -0.4759951 0.14893693 0.5520229 0.6926549 -0.2583341 -0.07351912 -0.61658746 0.026704282 -0.03417475 -0.5837976 -1.197604 0.13652472 -0.174071 -0.13056263 -0.5206806 0.06450689 0.3814411 -0.050396953 0.68916595 0.4642303 0.076264374 -0.9770477 -0.000100784004 0.018741341 0.5997591 0.008529618 -0.35868597 0.5095479 -0.4006141 -0.29254618 -0.2055877 -0.36946696 -0.07383793 0.16612054 -0.5821336 1.0030843 -0.22454506 0.24136202 -0.023107847 0.103962936 -0.40074024 -0.5843879 0.26771057 -0.1282447 0.36137232 -0.65408695 -0.3511606 -0.17310181 0.095707804 0.24796888 0.1819324 -0.19599566 -0.20228836 -0.24645235 0.57907885 -0.0048160567 -0.06856634 0.30497718 0.09171131 0.09743597 0.18518002 -0.604215 -0.10301289 -0.3228754 -0.09472274 -0.2173395 0.0055087195 0.085679434 0.026729835 0.51862544 0.8313936 0.2770152 0.02848426 -0.7448255 0.2973313 0.4446144 0.36499858 -0.06899888 -0.22759496 -0.20793886 -0.56619716 0.5604276 -0.75010675 0.2668445 -0.47197294 -0.94058704 0.10799719 -0.2260469 0.14013396 0.44201225 0.16734965 -0.079116076 -0.880772 0.25959483 0.3845254 0.51938456 -0.24149889 -0.1531385 -0.06125279 0.1830423 -0.22484358 -0.44763413 0.28326324 -0.500992 0.1535617 0.25824174 -0.46773955 -0.32111073 -0.13006842 -0.49253982 0.27629954 -0.8668351 -1.2242912 0.93517005 -0.4676756 0.20956747 -0.71966654 -0.578215 0.24183197 1.0962249 0.40069082 0.24881083 -0.13150501
272 0.09927169 -0.18969195 0.26701933 0.08015286 0.11987642 0.076248854 -0.089813724 -0.2932248 0.08257736 -0.18642345 -0.10153249 0.18277018 0.19476742 0.15025085 -0.05316179 0.11674462 0.48067123 0.14618066 -0.16109577 0.14341617 -0.013838373 -0.3799443 -0.0794295 -0.068264954 -0.3588835 0.48932016 -0.42515627 -0.08351396 -0.046183154 0.60804415 -0.48734695 -0.07200699 0.036347855 0.14138934 0.36223692 -0.12663046 -0.10046604 0.41779515 -0.14158298 -0.19171181 0.20149381 -0.124759346 -0.1532361 0.09514437 0.016040405 -0.096644 -0.4216833 0.05707172 -0.45833886 0.013816986 -0.6039691 0.38957137 0.092295215 0.10259175 0.22640449 0.1654184 0.05141412 0.28527763 -0.23435509 -0.006729475 -0.39296934 -0.25468963 0.29667765 0.012386274 0.44757143 0.17977935 -0.44200492 0.37514037 -0.3704427 -0.1388611 -0.18182346 0.29090506 0.20798603 0.07953123 0.082574874 -0.1024984 -0.32059595 -0.25770643 -0.35580862 0.059884436 -0.037189752 0.20091899 -0.26852024 0.4916903 0.0069148615 0.06500594 0.19517997 -0.11260194 0.51776546 -0.00023329744 0.10526016 0.52880293 0.253561 -7.8431e-05 0.1481376 0.10703483 0.09761291 0.29899353 -0.06762889 -0.19424394 0.19352876 -0.5357781 -0.01622355 -0.2147507 0.18660325 -0.025493633 0.26309168 -0.23589002 0.25819156 0.17779571 0.077651106 -0.047611143 -0.014691609 0.41025743 0.020706622 -0.08425424 0.27505812 -0.060255107 0.028765127 -0.03903102 -0.24825859 -0.10754127 -0.30725154 0.12745428 -0.059597157 -0.09998623 0.1827109 -0.0594991
185 -0.014836866 0.026617184 0.14623429 0.15526764 0.22960265 0.06837997 0.0015655021 -0.20008838 0.18148668 -0.15374109 0.0064810445 0.13327631 0.18105951 0.15561102 -0.20422445 0.074655846 0.48180494 0.27383772 -0.035488132 0.13358565 0.1495692 -0.2227214 -0.030847332 -0.11344453 -0.30645528 0.31947812 -0.31069595 -0.0858672 0.03738604 0.5108981 -0.2547527 -0.15009186 0.15970248 0.025938965 0.44556358 -0.05571805 0.048169397 0.3251117 -0.12592511 -0.25109857 0.14384073 -0.05967523 -0.11217861 -0.006124156 -0.0008720301 -0.19637667 -0.43593854 -0.16198312 -0.3197356 0.16422383 -0.4881618 0.36432576 0.21445195 0.046553377 0.07485253 0.22059627 0.057074066 0.40521118 -0.092522085 -0.0362627 -0.2543838 -0.024701077 0.30982065 -0.042079963 0.5512417 0.057690755 -0.6363717 0.43740872 -0.37327272 -0.1320949 -0.16978706 0.36523098 0.23778528 0.16186911 0.09436905 -0.16054346 -0.27583772 -0.26859823 -0.24716526 0.06398211 0.047935743 0.13955402 -0.27396217 0.4213912 -0.057971206 -0.084884234 0.2725494 -0.13282192 0.460581 0.16263929 0.17139518 0.45136 0.1200104 -0.055116773 0.06316223 -0.040136255 0.25890005 0.22486015 -0.104337096 -0.21390456 0.33191416 -0.51986456 -0.12077605 -0.25713494 0.1313316 0.024943553 0.3804496 -0.16720228 0.26909596 0.19091113 0.06568847 -0.09152621 0.1310435 0.25899693 -0.02931055 -0.14871867 0.34844136 -0.19174454 0.229277 0.028261 -0.20466371 -0.13452783 -0.21290931 0.25444937 0.058373645 -0.14819689 -0.04062904 -0.10952292
349 0.017902032 -0.13807175 0.23524603 0.192219 0.13812631 0.08955778 -0.05612705 -0.33866265 0.12260704 -0.109082885 -0.18294063 0.18689838 0.12924519 0.023482578 -0.11993505 -0.010017334 0.48812887 0.18070918 -0.023947032 0.14253063 0.15904894 -0.30519328 -0.13882604 -0.13265648 -0.3221746 0.30733395 -0.24826132 -0.063492894 0.05906421 0.5203648 -0.34474987 -0.14881782 0.14072698 0.18227293 0.34400922 -0.18799524 0.14506844 0.32724902 -0.14434704 -0.26872927 0.20202541 -0.09623033 -0.12200914 0.11308319 0.039177503 -0.23426284 -0.35771036 0.089689314 -0.3926013 0.15993138 -0.62545806 0.3865947 0.21092021 0.1575158 -0.031629633 0.10935376 0.17527428 0.3011391 -0.15558149 -0.15111901 -0.18355076 -0.11388519 0.27691376 -0.069282256 0.61030143 0.05239886 -0.58413523 0.45034721 -0.385512 -0.1219245 -0.23777682 0.33481407 0.2035709 0.11356008 0.2031575 -0.23817515 -0.30159032 -0.20567033 -0.35005373 0.06904101 0.070004694 0.28220955 -0.27270088 0.46461427 -0.095922045 -0.034764253 0.2790246 -0.14420353 0.4359597 0.061914332 0.20799677 0.57310265 0.08613826 -0.012428896 0.0785669 0.046864897 0.13124129 0.12700956 -0.064115435 -0.14634863 0.34869045 -0.520032 -0.12670317 -0.15345882 0.11017228 0.056676593 0.3174636 -0.16702734 0.37448052 0.2099443 0.060696024 -0.2191309 0.06146316 0.24258728 0.006808733 -0.05950509 0.257753 -0.06688045 0.2062816 -0.07031808 -0.14459434 -0.14164494 -0.23377544 0.2251731 -0.12379811 -0.025642402 0.08129732 -0.1276807
277 0.027897118 -0.13606502 0.35004556 0.17815803 0.12854706 0.077841125 -0.06585695 -0.34909254 0.093729585 -0.05592082 -0.02302827 0.16793953 0.26773486 0.14936046 -0.13495678 0.03544317 0.49535272 0.10431317 -0.08850362 0.115264446 0.07289466 -0.27040312 -0.09747001 -0.09820173 -0.20653611 0.52235454 -0.4301986 -0.14390022 0.023932835 0.66982514 -0.44938812 -0.16724895 0.037881605 0.13335572 0.2571958 -0.027531123 0.097268514 0.39694157 -0.24994975 -0.073172726 0.19704136 -0.06617142 -0.16337979 0.065120846 -0.003299066 -0.10960593 -0.46440524 -0.067160025 -0.64100003 0.048055895 -0.60836077 0.33014295 0.110579826 0.097197816 0.18258333 0.15874264 0.060859967 0.28337395 -0.17440015 -0.11988212 -0.2507208 -0.27653405 0.25435972 0.10502866 0.46420738 0.09136595 -0.5204061 0.23752268 -0.3978344 -0.16995884 -0.2846814 0.26969057 0.23817205 0.17101146 0.22181907 -0.14362986 -0.4029583 -0.30324897 -0.3393725 -0.020825123 0.025420064 0.17790583 -0.21329534 0.4537824 -0.03851714 0.010043494 0.22630195 -0.14557488 0.49084243 -0.0046439697 0.12956293 0.64910555 0.10406085 0.070931934 0.007605646 0.033031467 0.13524044 0.20870474 0.0067497194 -0.13760574 0.33020917 -0.57492256 -0.103508346 -0.16042753 0.13327509 0.07733449 0.2591917 -0.23875968 0.31826067 0.121031806 0.19887683 -0.066986986 -0.052510496 0.34474948 0.04425908 -0.033300944 0.3027382 -0.07312168 0.05358603 0.11690849 -0.26978445 -0.17298494 -0.33121353 0.22080664 -0.15814596 -0.087276705 0.18517144 -0.1659448
251 0.13309368 0.50270224 -0.079455435 0.3404376 -0.29243144 0.029192891 -0.06801121 -0.6647856 0.26252455 -0.31464165 0.073604144 0.4227433 0.047832772 0.3073199 0.35938022 0.17710194 0.077545494 0.23096766 0.6057832 0.030385772 -0.40863585 0.19648613 0.0011513308 -0.11687847 0.022648912 -0.014035599 0.05917276 -0.2572611 -0.08518279 0.35349202 0.1726318 -0.55936265 0.090647236 0.15343718 -0.29162374 -0.23397028 0.20858252 -0.033743538 -0.25858495 -0.64736754 0.16804084 -0.13946006 0.14813335 0.63195777 0.40298837 -0.20904994 -0.013766724 -0.06499253 -0.23357463 -0.010822135 0.004017472 0.39086393 0.09990715 -0.27131176 0.50853354 0.3572289 -0.47666898 -0.1728894 -0.14298262 -0.13699254 0.13014258 -0.4363888 0.17717077 -0.0574127 0.26249853 -0.20355505 0.29259694 -0.061775535 0.12507704 -0.127632 0.32581708 -0.02857884 0.07512175 0.30381715 0.15220556 0.50840133 -0.30970109 -0.11500555 0.013408975 0.29774243 -0.06489483 0.086231716 -0.3981587 0.29750583 -0.04652171 -0.25753465 0.028593574 0.098160245 0.3100198 -0.0545506 -0.23245326 0.14453033 0.17094922 0.25677094 0.36046946 -0.40986317 0.057493202 -0.49662742 0.067866616 -0.11633666 -0.135977 0.065196216 -0.15692429 -0.28980097 0.17027378 -0.0384411 -0.3935191 -0.31271973 0.0931621 0.37815905 0.052960087 -0.2292255 -0.060269002 -0.19993015 0.15759233 0.42190674 -0.028852178 -0.21173885 0.50437987 -0.4541613 -0.13954283 -0.05730512 0.2697159 0.11688124 0.30041105 0.040154707 0.04610611 -0.36033085
502 0.19841623 0.5730236 -0.14305189 0.30635628 -0.15554048 0.10880347 -0.13386795 -0.6467177 0.30715466 -0.4098458 0.027364489 0.4681206 0.15444244 0.22333837 0.24110675 0.2157099 0.13243291 0.19783342 0.58517444 0.07754986 -0.4058829 0.11583684 -0.0059455982 -0.2512743 -0.02450953 0.103573486 0.11047838 -0.21842158 -0.08587724 0.25416037 0.18425559 -0.6240067 0.16204001 0.15536964 -0.43286413 -0.23877665 0.06913735 0.15401927 -0.32256374 -0.6392334 0.19970018 -0.19779985 0.11520483 0.61738616 0.39885008 -0.31715673 0.08426826 0.016470764 -0.3222392 -0.13585587 0.14501369 0.39179525 0.017500667 -0.31888044 0.61165446 0.34018043 -0.4477561 0.025404105 -0.13488519 -0.15754274 0.14080597 -0.42613086 0.2649956 0.046269443 0.19596921 -0.26817983 0.45830473 -0.042163767 0.11804359 -0.08917571 0.3303772 -0.16964309 0.047550388 0.2397223 0.18869838 0.54926795 -0.29421845 -0.11014595 0.04697705 0.26257542 -0.05001396 0.09681987 -0.39273316 0.35624653 0.0011092233 -0.2718621 0.041467212 0.062041394 0.39753824 -0.07936553 -0.24157985 0.27742743 0.17927559 0.28508615 0.3955869 -0.35058796 0.20834845 -0.48251843 0.1537755 -0.12311911 -0.055278715 0.12780967 -0.10163737 -0.22196919 0.08346375 -0.11190806 -0.48012832 -0.43761942 0.11736799 0.3076375 0.029935975 -0.118659526 -0.051972505 -0.25196713 0.25601235 0.42293608 0.053003795 -0.18203767 0.4374286 -0.45052993 -0.15790407 -0.11054536 0.19660063 0.17829303 0.33126926 -0.12045744 0.036783572 -0.44481108
537 0.19051085 0.38667294 -0.08897345 0.09103265 -0.33696657 0.12266141 -0.17653435 -0.45682266 0.04252424 -0.42462057 -0.07273586 0.45760322 0.17793623 0.08358068 0.33248723 0.07892913 0.016191643 -0.0002566308 0.2983932 0.18405169 -0.25257823 0.28917864 -0.027020652 -0.34355602 0.17536432 0.19613665 -0.02548202 -0.21440242 -0.055887215 0.19893005 0.02295804 -0.4475789 0.0050666975 0.24396777 -0.16013421 -0.37807113 0.13076928 -0.037635956 -0.30213773 -0.7595911 0.076077364 -0.03703323 0.007268414 0.5171067 0.32953855 -0.26043025 -0.10360746 0.040076993 -0.2776935 -0.1412917 -0.07449518 0.23848546 0.12686606 0.032877788 0.5597775 0.37735265 -0.35645843 -0.09835141 -0.019591171 -0.06294343 0.27662435 -0.3918214 0.11271215 -0.049015608 0.23548569 -0.12133805 0.36404264 -0.09599317 0.13542937 0.08465141 0.4022144 0.066969626 0.08037479 0.36933628 0.17958511 0.537894 -0.18182918 -0.085047 0.048293434 0.21557526 0.1803062 0.10276093 -0.41148013 0.30989403 0.055453066 -0.24324514 -0.028454999 0.21192338 0.20095475 0.14348206 -0.14399251 0.16909666 0.20029585 0.17309532 0.24632114 -0.36378804 0.059652295 -0.4227199 0.178529 -0.15316622 -0.1577177 0.10373564 -0.31992197 -0.17504284 0.23476464 -0.07070012 -0.42330924 -0.4099328 0.21328253 0.22943388 0.06935002 -0.2145463 -0.0144181205 -0.21935427 0.31701156 0.16215122 0.13544928 -0.3484215 0.31335288 -0.39201084 -0.1750498 -0.069733515 0.11334571 0.1599437 0.52644265 -0.10501767 -0.05966648 -0.3514414
246 0.19345826 0.413473 -0.050339766 0.37827656 -0.24034843 0.01902072 -0.13039018 -0.5968537 0.17334478 -0.31976795 -0.037099488 0.49514863 0.05120236 0.25856912 0.4865366 0.09828313 0.09637274 0.16168289 0.52492714 0.10043521 -0.3764815 0.15253998 -0.047064397 -0.21147256 -0.027316147 0.003041643 0.063461 -0.2705561 -0.22335884 0.32968417 0.070000194 -0.47369322 0.1479903 0.1928773 -0.4490855 -0.26520577 0.21515806 -0.037441056 -0.22322431 -0.5129368 0.105435565 -0.22829758 0.108721584 0.59886444 0.4105175 -0.20963463 -0.03588684 0.025145592 -0.19038078 -0.053275123 -0.019285683 0.33850226 0.004044383 -0.18690845 0.4352945 0.42447126 -0.46031618 -0.25203905 -0.07329963 -0.12787732 0.11202262 -0.39298683 0.24868488 0.003012896 0.28629473 -0.2509787 0.39194995 -0.10396582 0.13024215 -0.14428113 0.2454666 -0.09350322 0.06409824 0.1411516 0.2484548 0.42077738 -0.24800453 -0.10989774 0.009977856 0.32045287 -0.07838487 0.032071717 -0.40368882 0.22944783 -0.09511357 -0.29975793 0.058952175 0.15331763 0.35171974 0.022502523 -0.23688704 0.18177263 0.2216731 0.33706874 0.34444875 -0.3330366 0.13005403 -0.26759964 0.0937193 -0.15342094 -0.047636826 0.084984444 -0.083272904 -0.22838527 0.07957172 -0.13718945 -0.39427966 -0.30340466 0.076989725 0.26080984 0.038220555 -0.16280018 -0.10232848 -0.1863883 0.38515183 0.397453 0.03733336 -0.12569523 0.41447052 -0.4245302 -0.18374069 0.002211623 0.2198582 0.10447864 0.283278 0.0071496856 -0.023783393 -0.36129394
133 0.2810699 0.6520971 -0.03235873 -0.57722336 1.0825262 -0.48783657 -0.12741312 0.2806005 0.23724243 -0.17733052 0.025460698 -0.7530508 0.3010004 -0.11322126 -0.23085792 -0.83942735 -0.14280795 -0.11420695 0.047075007 -0.6247681 0.061703734 0.27177334 0.32060143 0.4135802 0.4457512 0.06577109 -0.8525746 0.21355265 -0.19129069 0.6635299 0.27992696 -0.39822122 0.50569993 -0.46846423 -0.24972416 -0.4909719 -0.56630415 -0.15807879 -0.16538772 -0.7307086 0.97059995 -0.1518845 0.10216146 0.069752514 0.17589962 -0.48170936 -0.37988642 0.303816 0.04779949 0.3484215 -0.6572907 -0.27860633 -0.21516494 0.09048078 0.3848503 0.552128 -0.09625561 -0.10781917 -0.09501279 1.0027784 0.16403027 -0.21587962 0.4753724 0.3702671 0.06841393 -0.033260252 -0.58648616 -0.11875055 -0.26512054 -0.24946615 -0.21365142 0.31065962 0.25051552 -0.04782705 0.15457372 0.8241862 0.41416317 -0.121627495 -0.6025924 0.018539466 0.14038962 0.6520437 -0.019718414 -0.22491401 -0.103489056 -0.35600358 0.56730086 -0.53239566 0.48625252 -0.46508276 -0.98746526 0.06708905 -0.041727312 0.07301372 0.23395234 0.082822576 0.051420417 -0.70729774 0.35999393 0.491131 0.73880595 -0.1115885 -0.25174478 0.16251124 -0.11629179 -0.44083488 -0.37606052 0.23827085 -0.03109773 -0.0493336 0.34303713 -0.3941783 -0.6678878 0.08285826 -0.5295625 0.06536422 -0.7889635 -1.023701 0.8844318 -0.5451549 0.15183724 -0.904844 -0.55348176 0.4849063 1.1565461 0.4799345 0.21038184 -0.087568834
390 0.23281628 0.45443302 -0.020983675 0.05406024 -0.21454896 0.16757019 -0.18930668 -0.47946206 -0.03939607 -0.40173885 -0.05021225 0.46898076 0.3436986 0.09336796 0.2848117 0.019857159 -0.011907013 -0.028756771 0.2620967 0.22327085 -0.23767145 0.39742875 -0.045517113 -0.28737253 0.22597535 0.26442036 0.08976058 -0.24290214 0.032782767 0.33437434 0.13402772 -0.47638848 -0.029832775 0.23306713 -0.11358437 -0.42988214 0.04883446 0.027345061 -0.2875418 -0.7274424 0.032607533 -0.0023962639 0.024844509 0.63547826 0.15704556 -0.28205648 -0.09734777 0.113741614 -0.3673589 -0.24039535 -0.08873954 0.32778788 0.10676887 -0.025102403 0.59149903 0.48344105 -0.18486877 -0.00989342 -0.012843329 -0.11020236 0.37584096 -0.40736663 0.10333601 0.04876757 0.10076735 -0.008738434 0.44950172 0.034559134 0.08425667 0.10172376 0.5587621 0.04016871 0.10909872 0.2778877 0.009049353 0.49791625 -0.120261475 -0.073124684 -0.014146765 0.09144126 0.09923541 -0.03201284 -0.30055213 0.23529266 0.08744729 -0.22351629 0.009628496 0.033069324 0.17542727 0.08775152 -0.030432865 0.1578141 0.20958586 0.07147303 0.19913629 -0.3686466 0.18606615 -0.39398834 0.13601802 -0.07777629 -0.065149486 0.11893858 -0.32048726 -0.13148333 0.17116293 -0.030640773 -0.5629385 -0.43522352 0.14653622 0.22057475 0.13543479 -0.19655189 0.0061872825 -0.3419978 0.19372416 0.215451 0.29200268 -0.34726748 0.3813416 -0.37761965 -0.17785154 -0.08696618 0.29608235 0.12279434 0.45459223 -0.13954645 -0.104779504 -0.26547444
526 -0.009567954 -0.018001681 0.15133362 0.20450643 0.20287979 -0.023773244 -0.12296561 -0.25075865 0.0033608654 -0.16697255 -0.07813168 0.23586199 0.2540967 0.067870826 -0.12616864 -0.0079987915 0.4434322 0.36686468 -0.16763876 0.16222547 0.13532509 -0.25957975 -0.13055798 -0.14102317 -0.17148952 0.43272698 -0.31756768 -0.0040493063 -0.041124485 0.4963313 -0.30669156 -0.09441588 0.10738249 0.014560083 0.46820885 -0.05458895 -0.009273393 0.3701901 -0.18867691 -0.2119873 0.29912308 -0.027295694 -0.011284157 0.15794297 0.009430922 -0.1235946 -0.40702638 -0.12061154 -0.5166347 0.088619374 -0.649693 0.24750614 0.19376795 0.076553926 0.014578384 0.20299798 0.012891242 0.24675207 -0.13633381 -0.027557831 -0.2676629 -0.09350726 0.2497772 0.0054771705 0.5657946 0.023958307 -0.6522609 0.45841098 -0.36809635 -0.12644596 -0.09712072 0.21734476 0.2659815 0.10372094 0.12438159 -0.25702938 -0.3830889 -0.37303552 -0.27733418 0.03374538 0.08500702 0.30562496 -0.37012053 0.44551352 -0.16747983 0.011094872 0.14794576 -0.23352244 0.50440615 0.08574255 0.17865996 0.42139125 0.24486464 0.018891545 0.06311693 0.03300536 0.24278586 0.20266244 -0.0029445058 -0.13578741 0.34710664 -0.529938 -0.051925648 -0.23759173 0.17932594 -0.029055864 0.4138433 -0.2636895 0.40648392 0.07685319 0.13940297 -0.023106432 0.087824486 0.2354209 0.059825063 -0.25818434 0.35266787 -0.086221956 0.089873455 0.035804305 -0.29504815 -0.17841431 -0.27537298 0.15520288 0.11724635 -0.0642626 -0.012371099 -0.20218642
586 0.077559434 -0.031525727 0.21538603 0.24649638 -0.012996739 0.016450055 -0.1578086 -0.2505573 0.02996175 -0.035830323 -0.10135868 0.2784563 0.16803737 -0.064314604 -0.04967547 -0.025825059 0.39969578 0.16471124 0.024260985 0.20455214 -0.023104072 -0.43652245 0.055714384 0.07507904 -0.06809642 0.3102296 -0.4953232 -0.012298196 -0.10836082 0.4970845 -0.4507375 0.18040219 -0.0018089355 -0.0061991266 0.27910253 -0.06410863 0.01957554 0.37365824 -0.29993734 -0.17682074 0.37451184 -0.04935058 -0.11255042 0.14394304 -0.05063931 -0.109947875 -0.44177818 -0.06446013 -0.54645795 0.12896575 -0.6327175 0.30642745 0.17286909 0.1389508 0.0011037359 0.3833083 -0.031687107 0.18015338 -0.20917171 -0.026578715 -0.29193157 -0.2810521 0.1364092 0.07190818 0.5735284 0.109854355 -0.6975166 0.19679345 -0.27741748 -0.07266248 -0.0617493 0.22608921 0.25747725 0.1634699 0.16418381 -0.16958301 -0.5185702 -0.36356378 -0.18260862 0.0029054412 -0.010430391 0.13499762 -0.27111268 0.70775515 -0.17315765 -0.0012616974 0.3477108 -0.08868282 0.39002746 0.11345288 0.13959412 0.40531385 0.17070465 0.08175166 -0.022976033 0.05315817 0.09135383 0.2229835 0.11821465 -0.13024008 0.1601717 -0.4687493 -0.0038555285 -0.2243342 0.19402446 -0.19973616 0.18302847 0.013861522 0.268466 -0.01637922 0.1620113 0.07971421 0.08777698 0.3093168 0.17611519 0.016783312 0.33661994 0.18255007 0.16460954 0.08618133 -0.3275853 -0.28721148 -0.23278192 0.030978324 0.3525001 -0.0740809 0.017138654 -0.04223736
289 0.2004264 0.5089616 0.09501964 0.16183415 -0.13733818 0.18165536 -0.17909454 -0.4052618 0.0035352143 -0.42206866 -0.11377691 0.44064143 0.04548505 0.14735778 0.2400924 -0.025683464 0.02366156 -0.02238333 0.3417448 0.20533238 -0.2972913 0.3783794 0.055263326 -0.25344282 0.22216135 0.16344982 0.04808842 -0.1821507 0.0073233326 0.31883922 0.1731367 -0.5123217 0.048279095 0.16385865 -0.046640668 -0.47213447 0.029807072 0.0059766034 -0.36311963 -0.7111065 0.047812108 -0.059929233 -0.044502623 0.51408666 0.25685173 -0.30010432 -0.14503795 0.01917956 -0.28578168 -0.15926035 -0.14244567 0.3061974 0.11403883 -0.11245634 0.5594801 0.45917612 -0.18158522 -0.039800685 0.008558735 -0.066479005 0.33090028 -0.2950532 0.12475884 0.0069381096 0.058648992 -0.105129376 0.4340091 -0.038986146 -0.009901039 0.16080979 0.62153196 0.03679049 -0.025344102 0.35336837 0.038960367 0.55263746 -0.15939245 -0.09490231 -0.06262014 0.09810169 0.043900587 -0.052025117 -0.3122657 0.30878204 0.040137563 -0.27182108 -0.012813308 0.16623011 0.20006154 0.08675604 -0.001460431 0.09373532 0.21855736 0.12066835 0.17922273 -0.36246988 0.10931998 -0.37680325 0.16414778 -0.06374263 -0.103814565 0.16286027 -0.20360094 -0.20205432 0.1266995 -0.1266301 -0.45211157 -0.3047736 0.25850993 0.24714777 0.18438335 -0.17646012 -0.024476998 -0.39808553 0.1580474 0.2683839 0.2309762 -0.42965418 0.3294111 -0.1738103 -0.17715403 -0.10109999 0.21462812 0.10697022 0.44264796 -0.13101482 -0.19191335 -0.29817763
378 0.1368211 0.43885085 0.06486243 0.07470011 -0.27287763 0.15365079 -0.18619381 -0.51441646 0.06669876 -0.41093588 -0.10992348 0.47574514 0.23569858 -0.0025371027 0.26428506 0.040848 0.04698384 -0.02215083 0.22399284 0.22777253 -0.31696728 0.38656107 -0.15295646 -0.3547382 0.27901238 0.23140949 0.08170448 -0.22499938 0.023223126 0.2900172 0.08318513 -0.4947206 0.04666153 0.18634488 -0.16433337 -0.5532113 -0.024384037 -0.071721524 -0.36936602 -0.8116243 0.1130217 0.064709544 -0.08800694 0.5666771 0.23563397 -0.21015614 -0.11408245 0.1228789 -0.39228243 -0.17523514 -0.05030697 0.39992392 0.15980656 0.03934495 0.45313722 0.42112207 -0.1715237 0.090373635 0.066775106 0.04857535 0.45140085 -0.3824663 0.06504057 -0.029974049 0.09608494 -0.0834087 0.44746834 -0.09509212 0.02560994 0.09776955 0.61985147 0.015854573 0.04983732 0.2808611 0.0011322486 0.4050294 -0.11775967 -0.0065701483 0.055215985 0.034388285 0.110985614 0.010699425 -0.29353338 0.29082868 0.036653526 -0.1646239 0.12597413 0.17070518 0.29791978 0.19280922 -0.026632618 0.1925197 0.23872268 0.15816827 0.1618846 -0.21157856 0.29777232 -0.41226614 0.22587581 -0.22624254 -0.10683067 0.09736138 -0.27340215 -0.21904123 0.16690032 -0.11319427 -0.52033085 -0.42958143 0.28927395 0.22352053 0.2197894 -0.1905228 -0.049915906 -0.2812158 0.16346066 0.19602302 0.26796728 -0.30099937 0.48772028 -0.27431497 -0.0458982 -0.07096556 0.10178961 0.09518385 0.47504443 -0.11624285 -0.22941433 -0.26307714
63 0.2682443 0.5592072 -0.04772467 -0.67676455 1.0890021 -0.2301228 0.03494228 0.15281636 0.3200452 -0.030371103 -0.021597393 -0.7736539 0.12198098 -0.029962301 -0.2094531 -0.8517882 -0.16311906 -0.119212076 -0.0066384585 -0.64205545 -0.0516437 0.2795836 0.23862007 0.40594798 0.45176247 0.13219632 -0.82696164 0.08086441 -0.20591527 0.7216466 0.20496435 -0.33013046 0.41126138 -0.49052355 -0.11175614 -0.42016897 -0.5509079 0.067310005 -0.12685175 -0.81709445 1.0035208 -0.14529511 0.1860391 -0.084269784 0.29053122 -0.52264315 -0.36817935 0.30721694 0.10550118 0.29950726 -0.82702035 -0.2565949 -0.38932067 0.11069741 0.3857347 0.44360995 -0.25024173 -0.2149824 -0.071089484 0.90928257 0.14413725 -0.35036442 0.57700217 0.40634546 -0.03593372 -0.057132546 -0.5727272 -0.13679378 -0.2617918 -0.15383519 -0.43765056 0.37587464 0.20758411 0.0065448023 0.37363464 0.8557011 0.5288471 -0.033561278 -0.50725013 0.17046745 0.21792883 0.623709 0.03431312 -0.3086634 -0.18716592 -0.35374457 0.66337615 -0.5408718 0.5336795 -0.48662847 -0.9901124 0.20064156 -0.12455027 0.21558863 0.36827555 0.030341465 0.12015948 -0.9138921 0.41239482 0.3368111 0.67303663 -0.047213413 -0.2879569 0.081178024 -0.22183141 -0.5295102 -0.2984929 0.23128584 -0.21586847 0.06578688 0.15239276 -0.43493772 -0.60795 0.10443949 -0.4730808 0.14173809 -0.76479554 -1.0577025 0.9680751 -0.48771775 0.1486562 -0.88220686 -0.5824357 0.4598521 1.1731646 0.45741546 0.12457627 0.023827083
397 0.012525424 0.6077505 -0.13420284 -0.2613797 0.59250486 -0.12101364 0.07267186 0.51709026 -0.063217394 -0.020225395 0.21647349 0.35942706 -0.1819048 -0.07065837 0.5164878 -0.4132191 0.20428108 -0.7984809 -0.045200795 0.9764863 -0.26416272 0.04150173 1.0024838 -0.12151599 0.06819812 0.2542892 -0.315592 0.20701535 -0.65792793 0.69275063 0.059885085 -0.45598152 -0.09618215 -0.25836647 0.0357957 0.032566424 -0.7395964 0.54965 -0.42050478 0.65989316 -0.50938874 0.18893877 -0.064779155 0.6264652 0.33956116 0.015371307 -0.2286174 -0.4020169 -0.35748947 0.47118902 -0.19991851 1.6552395 0.4557914 0.17310819 0.55480444 0.6604331 -0.75284654 -0.13698256 0.27533644 0.18868722 -0.59281856 0.19973522 -0.062322956 0.24056514 0.965085 0.15609439 0.5170965 -0.49263382 -0.29637957 0.5530169 -0.55081314 -0.27475467 -0.347032 0.16403005 0.6580396 -0.37648582 -0.034672808 0.025236944 0.029407794 -0.14834362 -0.26971176 0.53299624 -0.023953589 0.32145104 -0.4003111 -0.15079458 0.24919318 0.60868996 -0.3177579 0.37481126 -0.39598918 0.47067916 0.60654885 -0.25716192 0.30743647 -0.21412745 0.34831735 0.13352603 0.39164326 -0.093381524 0.114113614 0.14274986 0.15619147 -0.3349165 -0.5643691 0.024772836 0.11135798 -0.2076861 0.37933376 0.045834262 -0.25634462 -0.22096747 -0.12194137 0.2509309 -0.45907798 0.7766328 -0.10806739 0.0800133 0.79885125 -0.9199749 -0.4084803 -0.3275666 -0.03174257 0.23363784 0.09877471 0.059868626 -0.029117784 -0.26428008
194 -0.43020222 -0.5689433 -0.29095381 0.20922424 -0.35335025 0.28942946 0.13604903 0.2572945 -0.2894276 0.12780637 0.15893176 -0.7525476 0.6997631 -0.90318304 0.65709025 -0.34858224 0.044567987 0.5423243 0.16909207 0.24150923 -0.2818851 -0.23530641 0.19333217 -0.014881867 0.60558957 0.45045462 -0.35825613 0.031019112 0.3103269 0.94235504 0.25121245 -1.2093319 -0.08182831 -0.06003344 0.15584768 0.18648362 -0.30531806 -0.051508095 0.31839913 -0.53171086 0.29187596 -0.82760876 -0.5558823 0.56545204 -0.1568119 -0.09494904 -0.8073692 0.40387428 -0.27782202 0.26244476 0.129666 0.016064638 0.4123044 0.54510665 0.72080284 0.5607905 -0.2232673 -0.70976496 -0.022621235 -0.029305652 -0.5445187 -0.79445434 -0.11178952 -0.43717492 0.14049871 0.33702523 -0.17959605 0.4031955 0.29891196 -0.33930212 -0.62084055 0.001205138 -0.039225377 0.3900974 0.32536954 -0.6060239 0.06330162 -0.34731644 -0.879001 0.6798592 -0.077857114 0.1914245 0.12352232 -0.19055486 0.2571938 -0.07895316 0.40706995 0.46837804 0.39432988 -0.7118699 0.77278244 -0.043959226 0.17133436 -0.1007498 -0.3282007 0.4780667 0.2664945 -0.01786055 -0.059108496 -0.22330628 -0.4731893 -1.0896994 -0.031786736 -0.34955087 -0.25101712 0.18733114 -0.29401827 -0.4172798 0.014164691 0.31950682 0.16478701 -0.5277228 -0.2749437 0.33777037 0.34914362 -0.08398404 -0.3558897 -0.17438795 0.26175317 -0.38646603 0.12392907 -0.8346334 0.38719097 -0.08674973 0.45991617 -0.28846774 -0.6903703 -0.32966432
108 -0.7260442 0.10002224 0.6588229 -0.8354574 1.0174794 0.29904994 -0.38347876 0.12711973 -0.18159422 0.38670838 0.7116649 -0.45266247 0.23428853 -0.0071091303 0.31574696 -0.13958928 0.3367502 -0.04717489 0.031898774 -0.30105495 -0.18885711 -0.82747644 0.7886748 -0.17855099 -0.0603425 -0.2041834 -0.21038277 0.24607486 -0.39834923 -0.4806579 -0.045233984 0.2909556 0.0038913935 -0.5695912 -0.28124732 0.26285785 0.12712009 -0.77890515 -0.106409416 -0.9997364 -0.1458243 -1.1457711 -0.6898819 0.83884823 0.10472306 -0.727314 0.01501294 0.6023599 0.5066908 0.09606312 -0.3349202 0.40589446 0.20960358 0.082486995 0.27426365 0.69533956 -0.44778335 -0.12106853 0.5318159 -0.35290787 -0.76446915 -1.0921812 0.40251234 -0.2363065 0.18859513 -0.19010592 -0.7659915 0.12488697 0.285189 -0.23592338 -0.24062654 -0.19487844 -0.1169931 -0.09760617 -0.77114385 0.31510487 -0.29788235 -0.39045095 -0.4314223 -0.31601468 0.050028827 -0.6739898 -0.84020805 0.030170228 0.023463273 -0.23984233 1.0060015 0.9182419 0.8126803 -1.0779405 0.04249433 0.30448577 -0.18496697 0.22911845 -0.0070506525 -0.40893072 0.8800543 0.46115744 0.24991035 -0.6154712 0.42965922 -0.16037926 0.23846632 -0.3635339 0.520438 -0.5596921 -0.38961604 -0.35833883 1.1528921 0.36907962 0.799628 0.594516 -0.23195942 -0.28680044 0.025932837 0.18510453 -0.066624604 -0.81570727 0.59535235 -0.4486182 -0.39160845 -1.0375766 -0.2678028 -0.7927007 0.111368984 -0.35236248 1.0819423 -0.35739738
497 0.20694235 0.5441739 -0.057922218 0.3077574 -0.25491646 -0.034268636 -0.09578215 -0.66130877 0.2581099 -0.25356984 0.021989299 0.47398996 0.1294953 0.44187108 0.24960396 0.14924838 0.10692947 0.17242762 0.5058268 0.112825364 -0.34505183 0.118589126 -0.054699924 -0.14992195 0.021779884 -0.04639438 0.047642674 -0.36155728 -0.15652154 0.2890343 0.097278304 -0.66631395 0.07292723 0.1808531 -0.32482746 -0.35154372 0.17030491 0.054498974 -0.26259282 -0.66470146 0.10136325 -0.17164516 0.1965144 0.53752416 0.4419766 -0.17150025 -0.019334704 -0.06452312 -0.22746927 -0.080797404 0.07625946 0.46609926 0.114993274 -0.1891806 0.5328138 0.35474712 -0.4240379 -0.14986467 -0.10898403 -0.101366706 0.19363159 -0.35626796 0.21933742 -0.032375123 0.2885483 -0.2558207 0.41955706 -0.08605956 0.051531583 -0.089321256 0.30786797 -0.14312987 -0.014953476 0.2353807 0.15323639 0.56252825 -0.32908696 -0.16500857 -0.03921802 0.3078833 -0.12180329 0.0188025 -0.43285337 0.2945098 -0.11627826 -0.32444322 0.005254609 0.08851392 0.34785363 -0.106566355 -0.32975522 0.16263087 0.15879297 0.2184274 0.38052833 -0.2555738 0.06204439 -0.4287687 0.038179986 -0.13786761 -0.1066124 0.098496795 -0.15416585 -0.1783567 0.066569224 -0.06756157 -0.32829916 -0.34753767 0.0068874387 0.30797 0.054283533 -0.22171398 -0.1071601 -0.2066957 0.30459055 0.3454642 0.061763838 -0.15013026 0.4403135 -0.3928452 -0.25863114 0.07048318 0.18592086 0.13997374 0.3506316 0.01755977 0.016181128 -0.43686593
112 -0.8415513 -0.11378865 0.727747 -0.8842646 0.7983502 0.45812884 -0.19572552 0.34354526 -0.11094396 0.3161498 0.2982217 -0.63473386 0.0695673 0.16115458 0.040303756 -0.27429163 0.39811495 -0.10304247 0.13566776 -0.3619227 -0.4094752 -0.6934592 0.46753547 -0.2927075 0.03075888 -0.21695246 -0.26469794 0.326958 -0.48362452 -0.37935615 0.010888647 0.26340812 -0.18450798 -0.3981787 -0.30812895 0.70674473 0.32624263 -1.0687807 -0.20562509 -0.7215712 -0.31971863 -1.0687691 -0.5640054 1.0213703 0.02738421 -0.84394354 0.0014188593 0.56310886 0.65020496 0.09770355 -0.2937343 0.3949314 0.14773421 0.29047516 0.23090334 0.7998424 -0.3917974 -0.21608336 0.20495355 -0.46675244 -0.6815479 -0.93470407 0.29154724 -0.19408122 0.35642564 -0.0250866 -0.86857325 -0.062164426 0.21151663 -0.12904155 -0.052804165 -0.38448778 0.017482461 0.03885788 -0.5401029 0.27549532 -0.49698007 -0.3139942 -0.42111883 -0.26957542 0.12740463 -0.7651979 -0.94414693 0.07677313 -0.19121912 -0.6361207 0.7954856 0.7092656 0.7773685 -1.0924474 -0.06027615 0.33260584 -0.3365722 0.14038615 0.06799426 -0.3779306 0.9550227 0.5381256 0.24663937 -0.4629286 0.35850176 -0.28323063 0.19782138 -0.39892313 0.6651871 -0.2829227 -0.45521668 -0.21512336 0.82045484 0.3120098 0.5070461 0.38459605 -0.37575683 -0.1931227 0.08129812 0.21095005 -0.015485194 -0.6568119 0.63819516 -0.5521634 -0.3597605 -1.0981165 -0.3651825 -0.80744535 -0.06678799 -0.2015248 1.1157429 -0.59547377
193 0.08004653 0.30492994 0.48485637 0.1595172 0.07247953 0.17586525 -0.5202395 -0.71913415 -0.46709508 -0.3934069 -0.15360019 0.3335542 1.1861677 0.6388163 -0.42188188 -0.9426573 0.109558664 -0.27199978 0.7724 0.43237975 0.074263625 -0.5519503 0.3474288 -0.19640285 0.2693321 -0.24025986 -0.71574175 -0.15752533 0.7031519 0.5236457 0.22515944 -0.64659244 0.39710218 -0.17838416 0.12086207 0.7456561 -0.031821143 -0.12846787 -0.33853072 -0.88761973 -0.5208792 -0.5255324 -0.8716165 0.7225843 -0.23484756 -0.37502593 -0.55353206 0.2511103 0.16971448 0.4348295 -0.3329475 0.57258373 0.39402446 1.2242996 0.031040277 0.12989292 -0.24499238 0.2801332 0.35624087 -0.55865914 -0.23871028 -0.84445864 0.13209277 -0.6739275 -0.30281475 0.7988424 -0.3963922 -0.069453195 0.8140284 -0.08739707 -0.14385845 -0.42379397 0.18774895 -0.004222849 0.35219926 0.052838687 0.19492379 0.25334993 0.030022388 -0.1355032 0.032156657 0.23456594 -0.12777196 0.16790977 -0.123584986 -0.22044708 0.79817545 0.74991643 0.3517335 -0.23665613 -0.36360547 0.02131976 -0.3617682 0.3069958 -0.29601133 7.549481e-05 0.9014577 0.13346912 -0.07757435 0.06301046 -0.24875809 0.6400251 0.35450387 0.14839812 -0.116982296 -0.3495899 1.1491363 0.03360548 -0.12408086 -0.33485833 0.20863521 -0.026199061 0.1135084 -0.6535015 0.5494539 -0.22529359 -0.0067424513 0.26492193 -0.2363952 0.06276974 0.58727854 -0.8811991 0.48333895 0.617487 -0.069779865 -0.4170592 0.19281508 0.15549703
288 -0.21212943 0.020729948 0.018595286 -0.042052478 0.047279358 0.5029487 -0.444214 -0.49084976 0.069303 -0.23942845 -0.1879376 -0.098417714 0.114413284 0.31219116 -0.033907946 -0.35622922 -0.45607197 -0.11778792 0.09979937 0.4161352 0.059710525 -0.12825283 -0.0129494695 -0.40368688 -0.09165798 0.60875833 -0.20864387 -0.5560494 -0.082739905 0.083681956 0.21204777 -0.12628502 -0.015157258 0.19046828 -0.11207369 0.10450246 -0.0023591095 -0.212601 0.20791067 -0.09723012 0.020207692 -0.40362468 -0.26550445 0.083175756 -0.060440905 0.0875353 -0.20598795 -0.34318468 -0.1939124 0.11575809 -0.26099113 0.332945 -0.41750467 0.072740465 0.23707066 -0.28490654 -0.086599 -0.33116686 0.07296144 -0.048441555 -0.38502598 -0.05167306 0.21090028 -0.12067901 0.025112389 0.14425194 0.051911205 0.23145723 -0.0471334 0.24554627 -0.007917552 -0.2463755 0.16933142 0.023591515 -0.57481426 0.11461415 0.15819727 -0.10610553 -0.3178237 -0.29087076 0.07657519 -0.059650823 -0.45496395 0.17155845 -0.33198002 0.16231117 -0.128656 0.05007258 0.058834266 0.046781577 -0.34079018 -0.15568078 0.082639754 -0.055974778 0.072945185 0.25320837 0.27253532 -0.14893645 -0.3721272 -0.08861336 -0.26382744 -0.199861 0.05169017 -0.30278805 0.12906207 -0.30416813 -0.037631955 -0.3641176 -0.11278808 -0.21028718 -0.079637825 -0.2651639 0.01819229 -0.30280578 -0.29038465 0.32576716 -0.23366569 0.10112624 0.73714435 0.05939702 -0.08174422 -0.28950053 -0.2931764 0.07184483 -0.020122709 -0.10972653 -0.3519672 -0.005679128
337 -0.03669396 -0.16517945 0.30189213 0.210903 0.067475125 0.16771612 -0.18851449 -0.2192674 0.23177338 -0.10946265 -0.11516886 0.25826606 0.2062559 0.08983654 -0.17253418 0.035120253 0.40940127 0.1528901 -0.09244876 0.10105713 -0.03338122 -0.26793247 -0.15599737 -0.01826393 -0.25989324 0.3755184 -0.36974853 -0.038514838 0.017201593 0.5534898 -0.4784296 -0.11600733 0.11955913 0.016113142 0.36743614 -0.13427904 0.035585456 0.44122103 -0.14694469 -0.1744496 0.25500587 -0.030026514 -0.12790291 0.19753475 0.027321827 -0.019980306 -0.4341465 0.020748291 -0.50439036 0.06516614 -0.6034243 0.36935097 0.16007438 0.034492243 0.107426286 0.11711065 0.053525526 0.31310776 -0.24368782 -0.025372336 -0.2586845 -0.13465273 0.31634194 -0.014189909 0.5269078 0.17667815 -0.58844626 0.30226386 -0.30225447 -0.12826143 -0.18114944 0.24543172 0.19196223 0.196819 0.06492643 -0.095756344 -0.36022934 -0.38885057 -0.3511548 0.06277319 0.043080967 0.3158711 -0.3036904 0.38008812 -0.046399668 -0.048694424 0.18933779 -0.226134 0.3958587 -0.06987246 0.075096935 0.57383907 0.17695995 0.0062683173 0.1620147 0.1630035 0.18083332 0.2095682 -0.08083068 -0.242219 0.31213886 -0.6442213 -0.06712256 -0.1318596 0.06163989 -0.040584344 0.40041232 -0.25423646 0.29493457 0.119387776 0.12494185 -0.07177624 0.065199606 0.3662493 0.013275741 -0.16828024 0.4353569 -0.07863087 0.21907797 -0.034435622 -0.30435717 -0.14995086 -0.31130672 0.14834462 -0.026007995 -0.029111246 0.08376059 -0.16816996
581 0.17998025 -0.11883376 0.056039855 0.11324303 0.1623117 -0.03595098 -0.023518076 -0.18108064 0.036701232 0.011200071 -0.033626094 0.22225441 0.21227461 -0.12834182 0.049550474 0.17208749 0.39914885 0.17193688 0.08071078 0.22662415 0.16422468 -0.4280835 0.049739838 0.054410916 -0.11533845 0.46018416 -0.40149453 -0.018674865 -0.110669255 0.6324186 -0.39795825 -0.028204907 -0.03195314 0.006788455 0.5306413 0.049805954 -0.034387648 0.27812797 -0.26124677 -0.19581988 0.3652234 0.070142984 -0.05010763 0.121362425 -0.09713142 -0.018014457 -0.40099937 -0.012714751 -0.48571402 0.08308066 -0.7147667 0.24173851 0.0924125 -0.037484653 0.21704385 0.28929037 0.015074746 0.10339448 -0.16256213 0.012560042 -0.21520154 -0.22225775 0.2726588 -0.0117232725 0.45371076 0.03537888 -0.61649406 0.37163818 -0.41172957 -0.034380853 0.04586938 0.36733323 0.07719184 0.117883 0.029131712 -0.2999067 -0.48853037 -0.32934642 -0.20980236 -0.092906326 0.11251697 0.06747524 -0.31482393 0.71701974 -0.1808429 -0.2022657 0.15974146 -0.24676757 0.45364574 -0.02694983 0.1713706 0.33614928 0.22131293 0.154852 0.072023384 0.039083287 0.25912857 0.2582402 0.041105174 -0.09891691 0.2857358 -0.47956765 -0.047548346 -0.09164518 0.17757703 -0.13915497 0.36045092 -0.11396611 0.33393395 0.028707862 0.15191928 0.0038573018 0.013149555 0.27858716 0.06643816 -0.02580407 0.24091615 0.21107227 0.22181283 0.09603439 -0.42882374 -0.37512702 -0.28837788 0.073986396 0.39980802 -0.082192056 -0.04443168 -0.085370965
199 0.25820744 0.6003709 -0.092676446 0.12858038 -0.23867753 0.10680622 -0.08881238 -0.4755664 0.053387035 -0.37926486 0.008903283 0.41414237 0.16834094 0.053078346 0.30312687 0.1171876 0.08507808 0.15641347 0.3902614 0.28639194 -0.21641897 0.39839554 0.0038682532 -0.20314965 0.17134872 0.19008815 -0.028563188 -0.10493157 -0.01319964 0.37057284 0.05206387 -0.5196767 0.020293614 0.16400611 -0.09427645 -0.45244032 0.007483825 -0.086319506 -0.2722717 -0.6778767 -0.00027923012 -0.08574583 0.049770325 0.4769086 0.1941715 -0.3584182 -0.010200718 0.08120828 -0.42090535 -0.16313533 -0.04932354 0.21404989 0.17513056 0.0229941 0.7185214 0.30393434 -0.2595781 -0.027608799 -0.004147023 -0.15990391 0.292379 -0.33412158 0.29941508 -0.08430802 0.16572203 -0.13067986 0.3361448 -0.010782281 0.09094114 -0.022188025 0.49635637 -0.03203001 -0.021869447 0.13609046 0.107393086 0.38838407 -0.22378126 -0.05107284 -0.014690809 0.21355748 0.14501242 0.04052963 -0.33012494 0.3440837 0.042011637 -0.14994188 -0.0382183 0.04780468 0.19542888 0.13932343 -0.12426834 0.1584441 0.34427404 0.08182141 0.14121713 -0.3875314 0.23564354 -0.48379704 0.16345783 -0.092426285 -0.12811817 0.11399654 -0.2380835 -0.22770903 0.14851463 0.009144413 -0.4744621 -0.33681026 0.06415251 0.19786686 0.057877388 -0.23218611 0.01803814 -0.3241224 0.1766701 0.24858719 0.24713425 -0.2698595 0.40546724 -0.37679037 -0.014491087 -0.09960171 0.16991018 0.054807562 0.5470256 -0.07208146 -0.0813378 -0.1987086
556 -0.0055724345 0.015626531 0.3720622 0.21169531 0.23820557 -0.057728343 -0.123749055 -0.29011828 0.0782343 -0.07389123 -0.051416513 0.25531763 0.33292082 0.02877649 -0.18079989 -0.0116042895 0.3720969 0.13088295 -0.17438698 -0.0112597095 0.16292529 -0.30651098 -0.1380178 -0.028634448 -0.28008303 0.45176792 -0.2671471 -0.067128055 0.054522593 0.46694428 -0.43921944 -0.111868806 -0.037859157 0.07037199 0.3015286 -0.13968709 0.16875848 0.3990426 -0.4169001 -0.27868778 0.27068156 -0.020609133 -0.24344388 0.08273304 0.23325866 -0.12089797 -0.3887361 -0.020789973 -0.46200648 -0.03426807 -0.5887593 0.48390657 0.16944353 0.063163914 0.123678535 0.19513772 0.105022326 0.34880063 -0.1595876 -0.05314374 -0.3072645 -0.18547311 0.14822653 0.019126642 0.59052235 -0.0035362563 -0.59835345 0.27632 -0.36621076 -0.08866611 -0.16810599 0.29674068 0.22135761 0.18395208 0.18119502 -0.15489437 -0.43740004 -0.25406423 -0.31119308 0.03559888 -0.039470326 0.24999654 -0.29831475 0.49086177 -0.11889248 -0.025991451 0.21022066 -0.25455788 0.4736914 0.08761629 0.18898255 0.45472994 0.12581418 -0.029376864 0.06096362 0.050568737 0.22154519 0.18239109 -0.022155276 -0.21393338 0.23688291 -0.56249976 -0.0693283 -0.1399162 -0.0041650124 -0.047352742 0.3152695 -0.19948418 0.36021158 0.09508745 0.23483042 -0.06474307 0.005763913 0.36025217 0.13471584 0.09947581 0.17701706 -0.034906268 0.1708766 0.029174164 -0.2621938 -0.07285923 -0.21540596 0.111222036 -0.110697344 0.034059867 0.22438863 -0.1122008
389 -0.2606971 0.15273644 0.061061613 -0.09105204 0.09352728 0.54155785 -0.36382484 -0.41847375 0.14868699 -0.23531 -0.32278675 0.012273398 0.19380714 0.31227833 -0.06401352 -0.34914103 -0.42662188 -0.1553597 -0.01634156 0.47345197 0.17613287 -0.1033049 0.01911852 -0.43104348 0.13075049 0.531387 -0.26802638 -0.5279846 -0.18216817 0.081971854 0.13159461 -0.046464164 -0.04475722 0.019040396 -0.19435376 0.108653724 0.17148513 -0.19301823 0.20593219 -0.19800709 0.053590167 -0.39050674 -0.23700002 0.21141107 -0.12518811 0.057577413 -0.10136791 -0.4840778 -0.2519431 0.08367442 -0.31027722 0.33644494 -0.4566041 0.018881388 0.23418824 -0.20395923 -0.1473322 -0.27330163 0.07144591 -0.088525616 -0.42127678 -0.12107969 0.045295645 -0.060810246 0.13075526 0.11041494 -0.051556494 0.23161148 -0.14478253 0.30393687 -0.108212896 -0.32270008 0.1878425 0.064127624 -0.43956894 0.053885207 0.06950743 -0.15376548 -0.3063937 -0.27173093 0.050273344 -0.111740805 -0.4306351 0.14379597 -0.42559707 0.17042446 -0.22876124 -0.043472387 0.106709376 0.1036116 -0.20302482 -0.13091466 0.069992065 -0.17835014 -0.004673447 0.17135406 0.34663126 -0.21391311 -0.30191925 -0.10223615 -0.35558558 -0.33868214 0.093851045 -0.4258093 0.23264723 -0.36328566 -0.18537739 -0.20568502 -0.020491753 -0.24462838 -0.05665652 -0.29216832 0.16691667 -0.42054045 -0.22688456 0.37731236 -0.24129194 0.12813044 0.7286469 0.23663121 0.11922131 -0.32867658 -0.20611836 0.117035456 -0.059040107 -0.23279281 -0.31122884 0.13092151
259 0.16974813 -0.06528118 0.084589824 0.2328905 0.12836874 0.04060015 -0.032133818 -0.20508263 -0.008906446 -0.13451298 -0.037638843 0.25163952 0.23935203 -0.091091916 -0.05942213 0.06526065 0.40756416 0.23657618 -0.018456433 0.28994423 0.06784191 -0.34060565 0.083877385 0.057233658 -0.2396507 0.39329684 -0.3875741 0.05986506 -0.15854302 0.54348725 -0.31819955 0.028959036 -0.06854907 -0.0972795 0.38837114 -0.007924954 -0.012154773 0.28936166 -0.22272356 -0.198936 0.35858527 -0.024280405 -0.045231685 0.043638833 -0.051041458 -0.018345453 -0.46160424 -0.07576662 -0.49853057 0.12828843 -0.63056093 0.28609183 0.2335321 0.08270694 0.053446475 0.33864835 -0.05282986 0.16677622 -0.11136034 -0.098383725 -0.2634321 -0.1467395 0.2689387 -0.05118933 0.53705496 0.018027205 -0.66910297 0.24487256 -0.29298306 0.006242246 0.038682662 0.29982093 0.2755623 0.18635653 0.023493815 -0.3411948 -0.4759058 -0.2736866 -0.31529015 0.06239556 0.17899361 0.18328147 -0.2698605 0.6097331 -0.18023422 -0.13895911 0.30014926 -0.09377562 0.3706359 0.05520565 0.14220071 0.344138 0.25577152 0.087659426 0.017803665 0.06530148 0.13692419 0.11990281 0.108499974 -0.14599684 0.23752826 -0.46302631 -0.028853782 -0.24585548 0.22771364 -0.1302099 0.28539822 0.0027618853 0.16532989 -0.02420286 0.11591163 0.034444522 0.18909657 0.15586524 0.053190272 -0.2136245 0.42302838 0.1374461 0.20172396 0.114618935 -0.25716814 -0.22463152 -0.30594397 0.044342656 0.31770623 -0.1975379 0.038790837 -0.14497693
109 -0.6043244 0.505081 1.0033399 -0.17111035 0.058878098 -0.055620942 -0.6794668 -0.06533002 -0.093297824 0.077398084 0.00034718023 0.16668968 -0.62385184 -0.72874296 -0.26439187 0.49305537 0.1379293 0.021234162 -0.32535863 -0.0038756148 0.15345614 0.032780822 1.0663961 -0.3401434 0.03392609 -0.17038894 -0.43483996 0.47966224 -0.5726466 0.41982174 -0.42694086 -1.0413694 -0.4706738 -0.61553913 -0.05641053 0.29970717 0.14019078 -0.581663 -0.24257846 -1.0934284 -0.428894 -0.23470865 -0.58473074 0.292125 -0.2097577 -0.7463063 0.118176915 -0.15185165 0.107022636 -0.19121403 -0.24685031 0.41526097 0.02876631 0.54861987 0.06585543 0.40833688 -0.025606185 -0.32545227 0.92726576 -0.62291795 -0.6545215 0.46710068 0.78244716 -0.41189063 0.75897396 0.49293575 -0.5052856 -0.06663273 -0.12897396 0.074455775 -0.34506494 -0.5703116 0.29248604 -0.12575415 -0.41371644 -0.2925865 0.219039 -0.085185364 -0.6074894 -0.2051094 0.3199075 -0.5467037 -0.2911448 0.1502672 0.45675337 -0.2935221 1.1150084 0.89744157 -0.021969894 -0.023973078 -0.34467906 0.074682415 0.47250307 -0.7475553 0.20319118 0.10940782 0.1392039 -0.79810536 0.60970956 -0.635378 -0.021046532 0.105895884 -0.15882574 0.35420033 0.6887294 -0.50284666 -0.22789292 -0.5865105 0.26694843 0.3940092 0.9682455 0.2817824 0.3808731 0.2899268 -0.20031254 -1.1014717 -0.35970724 -0.28317752 0.85060114 -0.50356394 -0.8170287 -0.4029628 -0.2132977 -0.58084124 0.55448705 -0.22993201 0.5737352 0.2762398
184 0.12727681 0.6638551 -0.14972886 0.108204216 -0.2376923 0.20854123 -0.16850273 -0.43693277 0.22025664 -0.40223628 -0.063053176 0.5412847 0.21855697 0.069614336 0.333146 0.036312595 0.16980739 0.12447353 0.27693027 0.29631564 -0.27417272 0.34204373 -0.07239654 -0.23596276 0.2992894 0.23400125 0.00519565 -0.16941035 0.04190207 0.18885154 0.087567985 -0.5232802 0.1360176 0.22596271 -0.08581061 -0.4754127 0.05400291 0.045509376 -0.36918846 -0.81869155 0.091249935 0.03779562 0.015857872 0.48572406 0.20264791 -0.17237309 -0.15411638 0.012494025 -0.31204304 -0.14732075 -0.09996638 0.29801902 0.1445799 -0.017257959 0.5525732 0.20741218 -0.25278166 0.015295187 0.090629205 -0.014070014 0.3427973 -0.4123068 0.07671053 -0.0011861688 0.067360625 -0.007815434 0.3637013 -0.09907786 -0.024108352 -0.0505662 0.4440769 0.017204292 -0.09942876 0.30547953 0.17612341 0.47271374 -0.09971618 -0.2530959 0.053351387 0.05187615 0.21901634 -0.058762074 -0.31626678 0.31635872 -0.03376863 -0.28213042 0.06347929 0.17177966 0.2136728 0.22421461 -0.047001608 0.25784394 0.24631697 0.18523833 0.18802047 -0.36379558 0.1534581 -0.3925323 0.20830104 -0.0958734 -0.18256363 0.20006238 -0.29943627 -0.17139575 0.1473662 -0.09153968 -0.56976295 -0.4215334 0.24950697 0.21239777 0.030601412 -0.13991834 -0.09161227 -0.29728618 0.29259416 0.27754897 0.18521504 -0.3963943 0.3131541 -0.30981353 -0.21123277 -0.16673781 0.13846342 0.042908918 0.32998183 -0.18567283 -0.13224699 -0.41358277
510 0.11732681 -0.19307937 0.013178023 0.26330617 0.21947485 -0.12940744 -0.13299073 -0.2908454 0.051285766 0.03177654 -0.19166613 0.2866219 0.1603828 0.010156452 -0.013419534 0.0025398445 0.44414902 0.23824012 -0.05405528 0.2694258 0.15490377 -0.41628996 0.081386074 0.12577172 -0.04498476 0.36406428 -0.38081357 -0.043932695 -0.13789766 0.45403203 -0.26760873 -0.05396194 0.014794678 -0.052866377 0.3687616 0.17723799 0.07353877 0.39672735 -0.13343473 -0.25941446 0.3291518 -0.022605957 -0.030137504 0.105455995 -0.12522821 -0.09072845 -0.39339197 -0.084107794 -0.4652893 0.03844123 -0.69940495 0.25178438 0.19799078 -0.0021854914 0.050966688 0.29531404 -0.080026336 0.22599821 -0.15596871 0.07902199 -0.17284936 -0.23432589 0.19716977 -0.13162965 0.64397556 0.08951124 -0.6058878 0.3059401 -0.3863426 -0.061738316 0.05668896 0.29887298 0.057907276 0.19520503 0.04673236 -0.26751685 -0.36858574 -0.33310288 -0.22117986 -0.108274 0.15781812 0.17609154 -0.22680596 0.64191574 -0.24181621 -0.22553389 0.2998721 -0.056012448 0.47597182 0.022308663 0.20940511 0.4371123 0.12690318 0.1398787 0.018203955 0.09163471 0.19122568 0.23871395 0.18151644 -0.14050806 0.26489988 -0.41582432 -0.019247638 -0.25919628 0.15112169 -0.078640684 0.2643877 -0.05170311 0.4002311 0.01658139 0.048088692 0.1302872 0.1791873 0.2520015 0.059368897 -0.045597475 0.30630347 0.29085782 0.16912399 0.09482358 -0.26185587 -0.2235361 -0.400139 0.13940382 0.23098646 -0.09208893 -0.017433599 -0.1859985
536 -0.39192408 -0.06691278 0.046677195 0.12980427 0.08802692 0.6087139 -0.4314206 -0.38986033 0.0015560573 -0.20733137 -0.11190723 0.025084237 0.16115712 0.28790405 0.019895958 -0.52097255 -0.32780588 -0.10299389 -0.06873751 0.42423105 0.012613838 -0.08143681 0.016823078 -0.44116884 -0.11743625 0.5974031 -0.19293362 -0.62203103 -0.016444689 0.057929754 0.07385894 -0.064819984 -0.09624579 0.04664734 -0.06808611 0.0854352 0.10518016 -0.12514831 0.12715423 -0.026104556 0.14634085 -0.3371155 -0.3361771 0.24595794 -0.17467944 0.06256097 -0.18716143 -0.46048892 -0.20106363 0.054453254 -0.31120822 0.41800916 -0.37394962 -0.049822025 0.13428767 -0.35402977 -0.14637227 -0.23674437 0.052479442 0.024004018 -0.21833004 -0.036869224 0.110308185 -0.11216181 0.2382013 0.14302698 -0.09431743 0.19419064 0.029391298 0.22467497 -0.10190142 -0.3147337 0.18574658 0.030418351 -0.5076368 0.15052883 0.08068207 -0.15631764 -0.22753553 -0.18826742 0.14087199 -0.02459639 -0.2964548 0.092470065 -0.36535722 0.14368379 -0.25888842 0.10466645 0.14565833 0.008000239 -0.4284545 -0.09675651 0.07667319 -0.035485458 -0.13489823 0.2685835 0.2846176 -0.10920435 -0.32681188 -0.030931065 -0.23912488 -0.2925563 0.09852712 -0.24578573 0.17563578 -0.4825766 -0.090573676 -0.37666613 -0.05039367 -0.17116019 -0.07947692 -0.15123475 0.026401184 -0.41965592 -0.114993915 0.4059168 -0.14641951 0.091923475 0.7636174 0.21326804 0.03479309 -0.28280526 -0.35634464 0.09296081 0.017033583 -0.19429025 -0.3025469 0.21241632
198 -0.29287282 0.0027286266 0.10617081 0.11400133 0.08321412 0.5777418 -0.42450476 -0.31179807 0.08697962 -0.037805825 -0.1345621 -0.010229873 0.23232837 0.3176926 -0.07485646 -0.2786714 -0.33580253 -0.120214835 0.09592356 0.46266606 0.19402677 -0.05640806 0.10503023 -0.40369877 -0.03304531 0.48629373 -0.20443937 -0.62589 0.0022059528 0.06836939 0.17306504 -0.21713008 -0.10459995 0.08103435 -0.002855482 0.07072404 0.06328858 -0.09472156 0.16649659 -0.14439464 0.10046664 -0.40513843 -0.20079093 0.22750424 -0.062359475 0.047519036 -0.10324684 -0.581439 -0.16889538 0.088706575 -0.3476091 0.33933824 -0.5930812 -0.0039159404 0.20641702 -0.24507508 -0.013931771 -0.3341219 0.01430505 0.05100034 -0.32248914 -0.03855501 0.020823324 -0.010972719 0.29862535 0.25664422 0.033323023 0.25587037 -0.014532289 0.22132978 0.056394298 -0.284855 0.08972403 0.005825324 -0.47027722 0.0802755 0.11930452 -0.20477529 -0.1889966 -0.3152701 0.13015622 -0.063297115 -0.3410018 0.070620194 -0.49892056 0.18874454 0.04560743 -0.02199105 0.17652668 -0.011597766 -0.2224505 -0.10410199 0.030690517 0.043606527 -0.000670207 0.16618614 0.32413778 -0.20863637 -0.3250066 -0.09961931 -0.16701768 -0.32004476 0.021277474 -0.28076136 0.0111237345 -0.3768601 -0.036432814 -0.31772155 -0.008270742 -0.30555362 -0.09689086 -0.10736755 0.1501443 -0.39126524 -0.2168745 0.32736313 -0.35836518 0.11956882 0.7617291 0.2643693 0.035368092 -0.28454214 -0.2882774 0.06921719 -0.11793986 -0.16208144 -0.36719438 0.03603357
208 0.029337704 0.4059575 0.5592974 0.1727455 0.12623638 0.15415289 -0.45056844 -0.76460683 -0.3394117 -0.4230234 -0.28435352 0.31402513 1.2434297 0.5457468 -0.43459278 -0.8201704 0.14855818 -0.37585813 0.76183635 0.43779463 -0.056329615 -0.61377287 0.36933485 -0.21717991 0.41108346 -0.2223286 -0.71815664 -0.14442407 0.64580667 0.6893902 0.2605125 -0.6335872 0.49422377 -0.26204658 0.17960909 0.72854775 0.056393232 -0.1645223 -0.3787126 -0.8981725 -0.38777167 -0.58309454 -0.83902586 0.6226631 -0.16483489 -0.29865134 -0.3570988 0.2562255 0.14565974 0.43093365 -0.27743044 0.445842 0.3728146 0.9896156 0.16167837 0.017449088 -0.34562328 0.23905222 0.4904241 -0.47596806 -0.23411912 -0.90097857 -0.059365425 -0.6747253 -0.2928584 0.8689658 -0.39672095 -0.1383233 0.64336836 0.016352225 -0.086880766 -0.3146679 0.1773445 0.0418347 0.33179927 0.115682304 0.40217757 0.16492663 -0.013096361 -0.11020985 -0.057956997 0.34724793 0.02899563 -0.0033193103 -0.14992578 -0.10877916 0.8332162 0.64853835 0.29053095 -0.21702506 -0.36004192 0.060789317 -0.48046404 0.24230362 -0.37967658 -0.02965229 0.99718964 0.21787626 -0.025706975 0.008516578 -0.32404795 0.7581968 0.2362685 0.17758755 -0.008585264 -0.35829175 1.1104484 -0.055668175 0.073526494 -0.32354885 0.33106983 0.11436694 0.0017394621 -0.63069314 0.40191522 -0.12036978 -0.048002988 0.3104443 -0.4227816 0.2539801 0.5098361 -0.96352226 0.46070847 0.44358405 -0.07058508 -0.37867323 0.20452653 0.08066605
183 -0.3193128 0.06561238 0.13807037 0.10475106 0.033236336 0.63761985 -0.37072772 -0.31742024 0.108218245 -0.23018995 -0.19265278 -0.08198998 0.2680654 0.18866207 -0.08915382 -0.20293793 -0.3528215 -0.080352105 0.13880706 0.3445541 0.07956187 -0.033709217 0.02201983 -0.45705593 -0.042036615 0.5194932 -0.2546955 -0.6112463 -0.082467124 0.07881967 0.14690417 -0.07453138 0.023226503 0.030062402 -0.1453156 0.022299346 0.17027415 -0.11616902 0.13474081 -0.06559451 0.15571937 -0.25761232 -0.21830632 0.21835797 -0.23499404 0.029264105 -0.1284719 -0.51195216 -0.17980568 0.12584338 -0.25928056 0.36737862 -0.49261102 0.00022601806 0.26326007 -0.24077997 -0.048127066 -0.31594092 0.018157873 0.011781149 -0.30718166 -0.0085325735 -0.02708619 -0.14270593 0.14758857 0.15251194 -0.11405193 0.19389407 -0.10210378 0.22044091 -0.03901912 -0.30318436 0.19937234 0.01872933 -0.44410348 0.108909115 0.10810625 -0.22642696 -0.23306409 -0.27827922 0.105970964 -0.0030110432 -0.33952862 0.07419726 -0.3971653 0.12272028 -0.15237206 0.117893636 0.18410724 0.18208455 -0.31176782 -0.13111575 -0.0014161395 -0.041272666 -0.05432574 0.21635188 0.21678822 -0.12228547 -0.3719051 -0.004137249 -0.31578553 -0.2433612 0.0063420627 -0.3900212 0.18387401 -0.43467268 -0.05791528 -0.25619832 0.0093361 -0.16891776 -0.021758609 -0.13610926 0.03367087 -0.3615482 -0.2527694 0.37543294 -0.2571975 0.0011760483 0.7291386 0.08208421 0.15881611 -0.40500173 -0.32515264 0.12451698 -0.03729535 -0.3262652 -0.34163323 0.12681271
377 -0.357623 0.037563257 0.16369651 0.034346133 0.08860997 0.57243514 -0.3868632 -0.44705808 0.23953557 -0.17560707 -0.34072012 -0.08375819 0.18669918 0.34042734 -0.14193323 -0.3520578 -0.50487685 -0.06652861 0.051081564 0.37745047 0.10799093 -0.15491828 0.033737723 -0.37771416 -0.00093716686 0.5750686 -0.27522063 -0.49405426 -0.12070763 0.023328282 0.11679526 -0.07148227 -0.027442303 -0.025727743 -0.08019346 0.09733329 0.073429435 -0.21838194 0.15649277 0.026264885 0.090056926 -0.5311536 -0.14616686 0.107441366 -0.0657054 0.13643937 -0.1033788 -0.40467235 -0.24157748 0.03936411 -0.27625474 0.41896442 -0.4292759 -0.06033351 0.25063208 -0.23675069 -0.07268417 -0.1848246 0.12569468 -0.0061785895 -0.3630285 -0.06870898 0.024919892 -0.14312787 0.12577327 0.102603585 0.09754273 0.1602164 -0.11420239 0.19698662 -0.0083489325 -0.3997989 0.077874236 0.11907043 -0.48830876 0.1978084 0.10441508 -0.23010117 -0.27361163 -0.20531455 0.21685755 0.00516889 -0.4245335 0.1854987 -0.5418178 0.12344032 -0.12584119 0.05589981 0.035325896 0.13353123 -0.22227542 -0.21830533 0.09406404 -0.09730367 -0.085773304 0.2181475 0.4654198 -0.031859275 -0.34014004 -0.01215249 -0.18620327 -0.37597677 0.14659375 -0.36899063 0.19386868 -0.43139502 -0.12559517 -0.36145842 -0.039653003 -0.2732602 -0.039651062 -0.161196 0.05180579 -0.34548968 -0.18718705 0.45361242 -0.26330137 0.10703234 0.7178482 0.18608615 -0.041518617 -0.27938163 -0.29758692 0.01177438 -0.050795425 -0.22358507 -0.29046634 0.07637847
209 -0.45606455 -0.4594502 -0.16355884 0.21758924 -0.28928965 0.060734697 0.24268346 0.29945344 -0.2181795 0.086111754 0.06442366 -0.75561696 0.7921932 -0.691958 0.55781794 -0.41866234 0.1719356 0.44205582 0.14762434 0.4269755 -0.06262752 -0.2699481 0.29282942 -0.07863332 0.44559357 0.3231129 -0.40595415 -0.17110062 0.24573454 0.9764287 0.15041822 -1.1124938 -0.106617615 -0.11699166 0.34132543 0.06384293 -0.24390198 0.10262332 0.42797637 -0.64443845 0.2268573 -0.8382011 -0.5961176 0.45662618 -0.2574225 -0.011432913 -0.58789116 0.29944173 -0.19308096 0.37172642 0.104556985 -0.0814227 0.5586537 0.4509894 0.9140774 0.580432 -0.35616192 -0.5866947 0.047605164 -0.044022143 -0.6711272 -0.6255784 -0.15943582 -0.37874967 0.18494244 0.29862738 -0.0757496 0.45797434 0.105200894 -0.35899904 -0.6469193 -0.03260438 -0.018986756 0.16607629 0.37398428 -0.5785914 0.09469169 -0.31131274 -0.904193 0.60508233 -0.072464176 0.052868057 0.24057734 -0.10934026 0.38430542 0.054333672 0.4796682 0.45844665 0.37158474 -0.6744187 0.7371204 0.098155126 0.065572105 -0.0654296 -0.39255354 0.34407675 0.33965126 0.010347471 0.05227765 -0.17566061 -0.4278767 -0.9091097 -0.09724221 -0.34503984 -0.2060999 0.067374155 -0.22256352 -0.51331496 0.051264822 0.35619256 0.021953434 -0.3916028 -0.21458192 0.35107052 0.37248316 0.01823002 -0.42352164 -0.0566066 0.4821557 -0.4038897 0.15872596 -0.93326515 0.22677955 -0.13469 0.536563 -0.15959716 -0.5930912 -0.55470985
355 0.054454178 0.62602866 -0.2897007 -0.4906063 0.637128 -0.104904674 0.1987776 0.6021883 0.06257916 0.041820537 0.31446794 0.3568949 -0.05736111 -0.18169723 0.49037153 -0.48770562 0.1163257 -0.860515 0.042715617 1.0662395 -0.13092403 -0.011483519 0.9970665 -0.040228114 0.17704044 0.29293135 -0.40184072 0.19327107 -0.8487209 0.6461086 -0.03297246 -0.3869245 -0.09172452 -0.27789348 0.053267375 0.02211591 -0.75192255 0.38121924 -0.46324414 0.47964108 -0.46389684 0.21355046 -0.1056086 0.79750305 0.26192537 0.20863181 -0.3234798 -0.40082926 -0.34661293 0.48467967 -0.16894509 1.5944419 0.4423581 0.19054015 0.4732574 0.65089595 -0.75101584 -0.19525178 0.11047721 0.1070479 -0.52350765 0.32853562 0.049713854 0.45557907 0.9641907 0.11340643 0.57048917 -0.4646267 -0.20914744 0.5305258 -0.40532625 -0.24564517 -0.17894608 0.2235179 0.7542499 -0.39772826 -0.07146955 0.016843239 0.03214436 -0.11618551 -0.20699629 0.56342673 -0.094029695 0.47909528 -0.29875982 -0.1691194 0.18225211 0.44784173 -0.55127776 0.37685674 -0.5115823 0.4100592 0.6737835 -0.33483738 0.20840384 -0.22588871 0.28297424 0.0056455527 0.3162853 -0.07295639 0.15370923 0.15109432 0.10114562 -0.25801584 -0.5654294 0.18005915 0.22819483 -0.23923841 0.266231 0.037809547 -0.32851493 -0.14784214 -0.1518564 0.12108421 -0.42613357 0.7272584 0.04040397 0.06981952 0.8381208 -0.9773666 -0.5127425 -0.31439707 -0.054857153 0.13288997 0.13806392 0.13710356 -0.011639 -0.22662379
113 -0.5668988 0.3181515 1.0463455 -0.37740514 0.12700167 0.20861962 -0.693579 0.041086614 0.03002127 -0.19883232 -0.096007645 0.23520188 -0.61996645 -0.8731309 -0.2633115 0.5001915 0.16927135 -0.102030754 -0.3797709 -0.08803563 0.072637856 -0.055722743 1.148426 -0.27548486 -0.24490632 -0.30717567 -0.64706373 0.3113873 -0.60054016 0.4821691 -0.3493047 -0.9387038 -0.53008205 -0.57476234 -0.081478976 0.4409994 0.08161283 -0.5766963 -0.09275439 -0.97750247 -0.3763229 -0.18666932 -0.5686199 0.2466384 -0.24497797 -0.74160707 0.13747804 -0.35946354 0.16078207 -0.2236467 -0.19329904 0.40026534 -0.04205126 0.34929064 -0.017918456 0.45772484 -0.17198157 -0.31283027 0.7966113 -0.7715144 -0.5723603 0.031379 0.85888684 -0.31586507 0.8298705 0.5536776 -0.32827204 -0.088412575 -0.035636358 0.076664746 -0.040936783 -0.60032576 0.395507 -0.18759169 -0.2442382 -0.35707203 0.18023744 0.16575068 -0.6548611 -0.23487769 0.33566695 -0.5837958 -0.26177916 0.12975204 0.45474958 -0.24819952 1.2160276 0.9614146 0.20027642 0.013310623 -0.39788008 -0.071279846 0.58651197 -0.71763676 0.24652235 0.0026582584 0.0802121 -0.9934137 0.46870908 -0.7452427 -0.03577915 0.3663039 -0.1259826 0.13014095 0.7364739 -0.8273883 -0.24626002 -0.6958648 0.35118392 0.3800646 0.9074753 0.26297575 0.13185894 0.0017318259 -0.08984137 -1.1297596 -0.37070367 -0.37078398 0.8310627 -0.4360728 -0.67062104 -0.30975577 -0.30701897 -0.5550245 0.45609212 -0.27901256 0.5849048 0.5846223
